digraph Tree {
node [shape=box] ;
0 [label="checking_balance <= 1.5\ngini = 0.425\nsamples = 700\nvalue = [486, 214]\nclass = No"] ;
1 [label="months_loan_duration <= 22.5\ngini = 0.494\nsamples = 378\nvalue = [210, 168]\nclass = No"] ;
0 -> 1 [labeldistance=2.5, labelangle=45, headlabel="True"] ;
2 [label="credit_history <= 0.5\ngini = 0.449\nsamples = 209\nvalue = [138, 71]\nclass = No"] ;
1 -> 2 ;
3 [label="other_credit <= 0.5\ngini = 0.223\nsamples = 47\nvalue = [41, 6]\nclass = No"] ;
2 -> 3 ;
4 [label="months_loan_duration <= 16.5\ngini = 0.469\nsamples = 8\nvalue = [5, 3]\nclass = No"] ;
3 -> 4 ;
5 [label="gini = 0.0\nsamples = 4\nvalue = [4, 0]\nclass = No"] ;
4 -> 5 ;
6 [label="purpose <= 0.5\ngini = 0.375\nsamples = 4\nvalue = [1, 3]\nclass = Yes"] ;
4 -> 6 ;
7 [label="gini = 0.0\nsamples = 1\nvalue = [1, 0]\nclass = No"] ;
6 -> 7 ;
8 [label="gini = 0.0\nsamples = 3\nvalue = [0, 3]\nclass = Yes"] ;
6 -> 8 ;
9 [label="amount <= 4779.5\ngini = 0.142\nsamples = 39\nvalue = [36, 3]\nclass = No"] ;
3 -> 9 ;
10 [label="amount <= 775.5\ngini = 0.102\nsamples = 37\nvalue = [35, 2]\nclass = No"] ;
9 -> 10 ;
11 [label="age <= 36.0\ngini = 0.375\nsamples = 4\nvalue = [3, 1]\nclass = No"] ;
10 -> 11 ;
12 [label="gini = 0.0\nsamples = 1\nvalue = [0, 1]\nclass = Yes"] ;
11 -> 12 ;
13 [label="gini = 0.0\nsamples = 3\nvalue = [3, 0]\nclass = No"] ;
11 -> 13 ;
14 [label="amount <= 3448.5\ngini = 0.059\nsamples = 33\nvalue = [32, 1]\nclass = No"] ;
10 -> 14 ;
15 [label="gini = 0.0\nsamples = 24\nvalue = [24, 0]\nclass = No"] ;
14 -> 15 ;
16 [label="percent_of_income <= 2.5\ngini = 0.198\nsamples = 9\nvalue = [8, 1]\nclass = No"] ;
14 -> 16 ;
17 [label="gini = 0.0\nsamples = 8\nvalue = [8, 0]\nclass = No"] ;
16 -> 17 ;
18 [label="gini = 0.0\nsamples = 1\nvalue = [0, 1]\nclass = Yes"] ;
16 -> 18 ;
19 [label="housing <= 1.5\ngini = 0.5\nsamples = 2\nvalue = [1, 1]\nclass = No"] ;
9 -> 19 ;
20 [label="gini = 0.0\nsamples = 1\nvalue = [1, 0]\nclass = No"] ;
19 -> 20 ;
21 [label="gini = 0.0\nsamples = 1\nvalue = [0, 1]\nclass = Yes"] ;
19 -> 21 ;
22 [label="credit_history <= 3.5\ngini = 0.48\nsamples = 162\nvalue = [97, 65]\nclass = No"] ;
2 -> 22 ;
23 [label="amount <= 1373.0\ngini = 0.468\nsamples = 150\nvalue = [94, 56]\nclass = No"] ;
22 -> 23 ;
24 [label="purpose <= 2.0\ngini = 0.5\nsamples = 66\nvalue = [34, 32]\nclass = No"] ;
23 -> 24 ;
25 [label="savings_balance <= 1.0\ngini = 0.401\nsamples = 18\nvalue = [5, 13]\nclass = Yes"] ;
24 -> 25 ;
26 [label="gini = 0.0\nsamples = 3\nvalue = [3, 0]\nclass = No"] ;
25 -> 26 ;
27 [label="amount <= 673.5\ngini = 0.231\nsamples = 15\nvalue = [2, 13]\nclass = Yes"] ;
25 -> 27 ;
28 [label="gini = 0.0\nsamples = 1\nvalue = [1, 0]\nclass = No"] ;
27 -> 28 ;
29 [label="age <= 22.5\ngini = 0.133\nsamples = 14\nvalue = [1, 13]\nclass = Yes"] ;
27 -> 29 ;
30 [label="gini = 0.0\nsamples = 1\nvalue = [1, 0]\nclass = No"] ;
29 -> 30 ;
31 [label="gini = 0.0\nsamples = 13\nvalue = [0, 13]\nclass = Yes"] ;
29 -> 31 ;
32 [label="checking_balance <= 0.5\ngini = 0.478\nsamples = 48\nvalue = [29, 19]\nclass = No"] ;
24 -> 32 ;
33 [label="amount <= 971.0\ngini = 0.365\nsamples = 25\nvalue = [19, 6]\nclass = No"] ;
32 -> 33 ;
34 [label="amount <= 854.0\ngini = 0.486\nsamples = 12\nvalue = [7, 5]\nclass = No"] ;
33 -> 34 ;
35 [label="purpose <= 4.5\ngini = 0.346\nsamples = 9\nvalue = [7, 2]\nclass = No"] ;
34 -> 35 ;
36 [label="amount <= 763.0\ngini = 0.219\nsamples = 8\nvalue = [7, 1]\nclass = No"] ;
35 -> 36 ;
37 [label="gini = 0.0\nsamples = 6\nvalue = [6, 0]\nclass = No"] ;
36 -> 37 ;
38 [label="amount <= 778.0\ngini = 0.5\nsamples = 2\nvalue = [1, 1]\nclass = No"] ;
36 -> 38 ;
39 [label="gini = 0.0\nsamples = 1\nvalue = [0, 1]\nclass = Yes"] ;
38 -> 39 ;
40 [label="gini = 0.0\nsamples = 1\nvalue = [1, 0]\nclass = No"] ;
38 -> 40 ;
41 [label="gini = 0.0\nsamples = 1\nvalue = [0, 1]\nclass = Yes"] ;
35 -> 41 ;
42 [label="gini = 0.0\nsamples = 3\nvalue = [0, 3]\nclass = Yes"] ;
34 -> 42 ;
43 [label="age <= 24.5\ngini = 0.142\nsamples = 13\nvalue = [12, 1]\nclass = No"] ;
33 -> 43 ;
44 [label="employment_duration <= 1.0\ngini = 0.5\nsamples = 2\nvalue = [1, 1]\nclass = No"] ;
43 -> 44 ;
45 [label="gini = 0.0\nsamples = 1\nvalue = [0, 1]\nclass = Yes"] ;
44 -> 45 ;
46 [label="gini = 0.0\nsamples = 1\nvalue = [1, 0]\nclass = No"] ;
44 -> 46 ;
47 [label="gini = 0.0\nsamples = 11\nvalue = [11, 0]\nclass = No"] ;
43 -> 47 ;
48 [label="months_loan_duration <= 16.5\ngini = 0.491\nsamples = 23\nvalue = [10, 13]\nclass = Yes"] ;
32 -> 48 ;
49 [label="phone <= 0.5\ngini = 0.499\nsamples = 19\nvalue = [10, 9]\nclass = No"] ;
48 -> 49 ;
50 [label="age <= 23.5\ngini = 0.48\nsamples = 15\nvalue = [6, 9]\nclass = Yes"] ;
49 -> 50 ;
51 [label="gini = 0.0\nsamples = 6\nvalue = [0, 6]\nclass = Yes"] ;
50 -> 51 ;
52 [label="amount <= 708.5\ngini = 0.444\nsamples = 9\nvalue = [6, 3]\nclass = No"] ;
50 -> 52 ;
53 [label="gini = 0.0\nsamples = 4\nvalue = [4, 0]\nclass = No"] ;
52 -> 53 ;
54 [label="percent_of_income <= 3.5\ngini = 0.48\nsamples = 5\nvalue = [2, 3]\nclass = Yes"] ;
52 -> 54 ;
55 [label="gini = 0.0\nsamples = 1\nvalue = [1, 0]\nclass = No"] ;
54 -> 55 ;
56 [label="months_loan_duration <= 13.5\ngini = 0.375\nsamples = 4\nvalue = [1, 3]\nclass = Yes"] ;
54 -> 56 ;
57 [label="gini = 0.0\nsamples = 2\nvalue = [0, 2]\nclass = Yes"] ;
56 -> 57 ;
58 [label="employment_duration <= 1.0\ngini = 0.5\nsamples = 2\nvalue = [1, 1]\nclass = No"] ;
56 -> 58 ;
59 [label="gini = 0.0\nsamples = 1\nvalue = [0, 1]\nclass = Yes"] ;
58 -> 59 ;
60 [label="gini = 0.0\nsamples = 1\nvalue = [1, 0]\nclass = No"] ;
58 -> 60 ;
61 [label="gini = 0.0\nsamples = 4\nvalue = [4, 0]\nclass = No"] ;
49 -> 61 ;
62 [label="gini = 0.0\nsamples = 4\nvalue = [0, 4]\nclass = Yes"] ;
48 -> 62 ;
63 [label="employment_duration <= 1.5\ngini = 0.408\nsamples = 84\nvalue = [60, 24]\nclass = No"] ;
23 -> 63 ;
64 [label="age <= 22.5\ngini = 0.25\nsamples = 41\nvalue = [35, 6]\nclass = No"] ;
63 -> 64 ;
65 [label="purpose <= 2.5\ngini = 0.444\nsamples = 3\nvalue = [1, 2]\nclass = Yes"] ;
64 -> 65 ;
66 [label="gini = 0.0\nsamples = 1\nvalue = [1, 0]\nclass = No"] ;
65 -> 66 ;
67 [label="gini = 0.0\nsamples = 2\nvalue = [0, 2]\nclass = Yes"] ;
65 -> 67 ;
68 [label="existing_loans_count <= 1.5\ngini = 0.188\nsamples = 38\nvalue = [34, 4]\nclass = No"] ;
64 -> 68 ;
69 [label="amount <= 3805.0\ngini = 0.062\nsamples = 31\nvalue = [30, 1]\nclass = No"] ;
68 -> 69 ;
70 [label="gini = 0.0\nsamples = 25\nvalue = [25, 0]\nclass = No"] ;
69 -> 70 ;
71 [label="years_at_residence <= 2.5\ngini = 0.278\nsamples = 6\nvalue = [5, 1]\nclass = No"] ;
69 -> 71 ;
72 [label="gini = 0.0\nsamples = 1\nvalue = [0, 1]\nclass = Yes"] ;
71 -> 72 ;
73 [label="gini = 0.0\nsamples = 5\nvalue = [5, 0]\nclass = No"] ;
71 -> 73 ;
74 [label="percent_of_income <= 3.0\ngini = 0.49\nsamples = 7\nvalue = [4, 3]\nclass = No"] ;
68 -> 74 ;
75 [label="gini = 0.0\nsamples = 4\nvalue = [4, 0]\nclass = No"] ;
74 -> 75 ;
76 [label="gini = 0.0\nsamples = 3\nvalue = [0, 3]\nclass = Yes"] ;
74 -> 76 ;
77 [label="amount <= 7491.5\ngini = 0.487\nsamples = 43\nvalue = [25, 18]\nclass = No"] ;
63 -> 77 ;
78 [label="age <= 28.5\ngini = 0.46\nsamples = 39\nvalue = [25, 14]\nclass = No"] ;
77 -> 78 ;
79 [label="amount <= 3528.5\ngini = 0.499\nsamples = 21\nvalue = [10, 11]\nclass = Yes"] ;
78 -> 79 ;
80 [label="credit_history <= 1.5\ngini = 0.457\nsamples = 17\nvalue = [6, 11]\nclass = Yes"] ;
79 -> 80 ;
81 [label="years_at_residence <= 3.5\ngini = 0.5\nsamples = 12\nvalue = [6, 6]\nclass = No"] ;
80 -> 81 ;
82 [label="phone <= 0.5\ngini = 0.48\nsamples = 10\nvalue = [4, 6]\nclass = Yes"] ;
81 -> 82 ;
83 [label="age <= 22.5\ngini = 0.49\nsamples = 7\nvalue = [4, 3]\nclass = No"] ;
82 -> 83 ;
84 [label="gini = 0.0\nsamples = 2\nvalue = [2, 0]\nclass = No"] ;
83 -> 84 ;
85 [label="amount <= 2156.5\ngini = 0.48\nsamples = 5\nvalue = [2, 3]\nclass = Yes"] ;
83 -> 85 ;
86 [label="gini = 0.0\nsamples = 2\nvalue = [0, 2]\nclass = Yes"] ;
85 -> 86 ;
87 [label="employment_duration <= 3.0\ngini = 0.444\nsamples = 3\nvalue = [2, 1]\nclass = No"] ;
85 -> 87 ;
88 [label="gini = 0.0\nsamples = 2\nvalue = [2, 0]\nclass = No"] ;
87 -> 88 ;
89 [label="gini = 0.0\nsamples = 1\nvalue = [0, 1]\nclass = Yes"] ;
87 -> 89 ;
90 [label="gini = 0.0\nsamples = 3\nvalue = [0, 3]\nclass = Yes"] ;
82 -> 90 ;
91 [label="gini = 0.0\nsamples = 2\nvalue = [2, 0]\nclass = No"] ;
81 -> 91 ;
92 [label="gini = 0.0\nsamples = 5\nvalue = [0, 5]\nclass = Yes"] ;
80 -> 92 ;
93 [label="gini = 0.0\nsamples = 4\nvalue = [4, 0]\nclass = No"] ;
79 -> 93 ;
94 [label="job <= 2.0\ngini = 0.278\nsamples = 18\nvalue = [15, 3]\nclass = No"] ;
78 -> 94 ;
95 [label="credit_history <= 2.5\ngini = 0.117\nsamples = 16\nvalue = [15, 1]\nclass = No"] ;
94 -> 95 ;
96 [label="gini = 0.0\nsamples = 14\nvalue = [14, 0]\nclass = No"] ;
95 -> 96 ;
97 [label="age <= 41.0\ngini = 0.5\nsamples = 2\nvalue = [1, 1]\nclass = No"] ;
95 -> 97 ;
98 [label="gini = 0.0\nsamples = 1\nvalue = [0, 1]\nclass = Yes"] ;
97 -> 98 ;
99 [label="gini = 0.0\nsamples = 1\nvalue = [1, 0]\nclass = No"] ;
97 -> 99 ;
100 [label="gini = 0.0\nsamples = 2\nvalue = [0, 2]\nclass = Yes"] ;
94 -> 100 ;
101 [label="gini = 0.0\nsamples = 4\nvalue = [0, 4]\nclass = Yes"] ;
77 -> 101 ;
102 [label="purpose <= 2.0\ngini = 0.375\nsamples = 12\nvalue = [3, 9]\nclass = Yes"] ;
22 -> 102 ;
103 [label="gini = 0.0\nsamples = 6\nvalue = [0, 6]\nclass = Yes"] ;
102 -> 103 ;
104 [label="employment_duration <= 1.0\ngini = 0.5\nsamples = 6\nvalue = [3, 3]\nclass = No"] ;
102 -> 104 ;
105 [label="age <= 23.5\ngini = 0.375\nsamples = 4\nvalue = [1, 3]\nclass = Yes"] ;
104 -> 105 ;
106 [label="gini = 0.0\nsamples = 1\nvalue = [1, 0]\nclass = No"] ;
105 -> 106 ;
107 [label="gini = 0.0\nsamples = 3\nvalue = [0, 3]\nclass = Yes"] ;
105 -> 107 ;
108 [label="gini = 0.0\nsamples = 2\nvalue = [2, 0]\nclass = No"] ;
104 -> 108 ;
109 [label="savings_balance <= 2.5\ngini = 0.489\nsamples = 169\nvalue = [72, 97]\nclass = Yes"] ;
1 -> 109 ;
110 [label="months_loan_duration <= 47.5\ngini = 0.459\nsamples = 137\nvalue = [49, 88]\nclass = Yes"] ;
109 -> 110 ;
111 [label="age <= 62.0\ngini = 0.484\nsamples = 112\nvalue = [46, 66]\nclass = Yes"] ;
110 -> 111 ;
112 [label="housing <= 1.5\ngini = 0.475\nsamples = 108\nvalue = [42, 66]\nclass = Yes"] ;
111 -> 112 ;
113 [label="age <= 22.5\ngini = 0.493\nsamples = 86\nvalue = [38, 48]\nclass = Yes"] ;
112 -> 113 ;
114 [label="percent_of_income <= 1.5\ngini = 0.245\nsamples = 7\nvalue = [6, 1]\nclass = No"] ;
113 -> 114 ;
115 [label="gini = 0.0\nsamples = 1\nvalue = [0, 1]\nclass = Yes"] ;
114 -> 115 ;
116 [label="gini = 0.0\nsamples = 6\nvalue = [6, 0]\nclass = No"] ;
114 -> 116 ;
117 [label="percent_of_income <= 2.5\ngini = 0.482\nsamples = 79\nvalue = [32, 47]\nclass = Yes"] ;
113 -> 117 ;
118 [label="amount <= 11025.0\ngini = 0.49\nsamples = 28\nvalue = [16, 12]\nclass = No"] ;
117 -> 118 ;
119 [label="dependents <= 1.5\ngini = 0.461\nsamples = 25\nvalue = [16, 9]\nclass = No"] ;
118 -> 119 ;
120 [label="years_at_residence <= 3.5\ngini = 0.499\nsamples = 19\nvalue = [10, 9]\nclass = No"] ;
119 -> 120 ;
121 [label="age <= 26.0\ngini = 0.426\nsamples = 13\nvalue = [9, 4]\nclass = No"] ;
120 -> 121 ;
122 [label="gini = 0.0\nsamples = 1\nvalue = [0, 1]\nclass = Yes"] ;
121 -> 122 ;
123 [label="years_at_residence <= 1.5\ngini = 0.375\nsamples = 12\nvalue = [9, 3]\nclass = No"] ;
121 -> 123 ;
124 [label="purpose <= 2.5\ngini = 0.5\nsamples = 4\nvalue = [2, 2]\nclass = No"] ;
123 -> 124 ;
125 [label="gini = 0.0\nsamples = 2\nvalue = [2, 0]\nclass = No"] ;
124 -> 125 ;
126 [label="gini = 0.0\nsamples = 2\nvalue = [0, 2]\nclass = Yes"] ;
124 -> 126 ;
127 [label="credit_history <= 1.5\ngini = 0.219\nsamples = 8\nvalue = [7, 1]\nclass = No"] ;
123 -> 127 ;
128 [label="amount <= 4418.5\ngini = 0.444\nsamples = 3\nvalue = [2, 1]\nclass = No"] ;
127 -> 128 ;
129 [label="gini = 0.0\nsamples = 2\nvalue = [2, 0]\nclass = No"] ;
128 -> 129 ;
130 [label="gini = 0.0\nsamples = 1\nvalue = [0, 1]\nclass = Yes"] ;
128 -> 130 ;
131 [label="gini = 0.0\nsamples = 5\nvalue = [5, 0]\nclass = No"] ;
127 -> 131 ;
132 [label="months_loan_duration <= 25.5\ngini = 0.278\nsamples = 6\nvalue = [1, 5]\nclass = Yes"] ;
120 -> 132 ;
133 [label="gini = 0.0\nsamples = 1\nvalue = [1, 0]\nclass = No"] ;
132 -> 133 ;
134 [label="gini = 0.0\nsamples = 5\nvalue = [0, 5]\nclass = Yes"] ;
132 -> 134 ;
135 [label="gini = 0.0\nsamples = 6\nvalue = [6, 0]\nclass = No"] ;
119 -> 135 ;
136 [label="gini = 0.0\nsamples = 3\nvalue = [0, 3]\nclass = Yes"] ;
118 -> 136 ;
137 [label="years_at_residence <= 1.5\ngini = 0.431\nsamples = 51\nvalue = [16, 35]\nclass = Yes"] ;
117 -> 137 ;
138 [label="checking_balance <= 0.5\ngini = 0.408\nsamples = 7\nvalue = [5, 2]\nclass = No"] ;
137 -> 138 ;
139 [label="gini = 0.0\nsamples = 4\nvalue = [4, 0]\nclass = No"] ;
138 -> 139 ;
140 [label="age <= 25.5\ngini = 0.444\nsamples = 3\nvalue = [1, 2]\nclass = Yes"] ;
138 -> 140 ;
141 [label="gini = 0.0\nsamples = 1\nvalue = [1, 0]\nclass = No"] ;
140 -> 141 ;
142 [label="gini = 0.0\nsamples = 2\nvalue = [0, 2]\nclass = Yes"] ;
140 -> 142 ;
143 [label="employment_duration <= 2.5\ngini = 0.375\nsamples = 44\nvalue = [11, 33]\nclass = Yes"] ;
137 -> 143 ;
144 [label="credit_history <= 0.5\ngini = 0.204\nsamples = 26\nvalue = [3, 23]\nclass = Yes"] ;
143 -> 144 ;
145 [label="age <= 32.0\ngini = 0.444\nsamples = 6\nvalue = [2, 4]\nclass = Yes"] ;
144 -> 145 ;
146 [label="gini = 0.0\nsamples = 3\nvalue = [0, 3]\nclass = Yes"] ;
145 -> 146 ;
147 [label="other_credit <= 0.5\ngini = 0.444\nsamples = 3\nvalue = [2, 1]\nclass = No"] ;
145 -> 147 ;
148 [label="gini = 0.0\nsamples = 1\nvalue = [0, 1]\nclass = Yes"] ;
147 -> 148 ;
149 [label="gini = 0.0\nsamples = 2\nvalue = [2, 0]\nclass = No"] ;
147 -> 149 ;
150 [label="amount <= 4113.0\ngini = 0.095\nsamples = 20\nvalue = [1, 19]\nclass = Yes"] ;
144 -> 150 ;
151 [label="gini = 0.0\nsamples = 16\nvalue = [0, 16]\nclass = Yes"] ;
150 -> 151 ;
152 [label="age <= 28.5\ngini = 0.375\nsamples = 4\nvalue = [1, 3]\nclass = Yes"] ;
150 -> 152 ;
153 [label="gini = 0.0\nsamples = 1\nvalue = [1, 0]\nclass = No"] ;
152 -> 153 ;
154 [label="gini = 0.0\nsamples = 3\nvalue = [0, 3]\nclass = Yes"] ;
152 -> 154 ;
155 [label="savings_balance <= 1.0\ngini = 0.494\nsamples = 18\nvalue = [8, 10]\nclass = Yes"] ;
143 -> 155 ;
156 [label="gini = 0.0\nsamples = 3\nvalue = [3, 0]\nclass = No"] ;
155 -> 156 ;
157 [label="purpose <= 1.5\ngini = 0.444\nsamples = 15\nvalue = [5, 10]\nclass = Yes"] ;
155 -> 157 ;
158 [label="gini = 0.0\nsamples = 7\nvalue = [0, 7]\nclass = Yes"] ;
157 -> 158 ;
159 [label="age <= 35.0\ngini = 0.469\nsamples = 8\nvalue = [5, 3]\nclass = No"] ;
157 -> 159 ;
160 [label="amount <= 3352.5\ngini = 0.375\nsamples = 4\nvalue = [1, 3]\nclass = Yes"] ;
159 -> 160 ;
161 [label="gini = 0.0\nsamples = 3\nvalue = [0, 3]\nclass = Yes"] ;
160 -> 161 ;
162 [label="gini = 0.0\nsamples = 1\nvalue = [1, 0]\nclass = No"] ;
160 -> 162 ;
163 [label="gini = 0.0\nsamples = 4\nvalue = [4, 0]\nclass = No"] ;
159 -> 163 ;
164 [label="amount <= 5233.5\ngini = 0.298\nsamples = 22\nvalue = [4, 18]\nclass = Yes"] ;
112 -> 164 ;
165 [label="savings_balance <= 1.0\ngini = 0.117\nsamples = 16\nvalue = [1, 15]\nclass = Yes"] ;
164 -> 165 ;
166 [label="credit_history <= 2.5\ngini = 0.375\nsamples = 4\nvalue = [1, 3]\nclass = Yes"] ;
165 -> 166 ;
167 [label="gini = 0.0\nsamples = 3\nvalue = [0, 3]\nclass = Yes"] ;
166 -> 167 ;
168 [label="gini = 0.0\nsamples = 1\nvalue = [1, 0]\nclass = No"] ;
166 -> 168 ;
169 [label="gini = 0.0\nsamples = 12\nvalue = [0, 12]\nclass = Yes"] ;
165 -> 169 ;
170 [label="amount <= 8415.0\ngini = 0.5\nsamples = 6\nvalue = [3, 3]\nclass = No"] ;
164 -> 170 ;
171 [label="gini = 0.0\nsamples = 3\nvalue = [3, 0]\nclass = No"] ;
170 -> 171 ;
172 [label="gini = 0.0\nsamples = 3\nvalue = [0, 3]\nclass = Yes"] ;
170 -> 172 ;
173 [label="gini = 0.0\nsamples = 4\nvalue = [4, 0]\nclass = No"] ;
111 -> 173 ;
174 [label="years_at_residence <= 1.5\ngini = 0.211\nsamples = 25\nvalue = [3, 22]\nclass = Yes"] ;
110 -> 174 ;
175 [label="gini = 0.0\nsamples = 1\nvalue = [1, 0]\nclass = No"] ;
174 -> 175 ;
176 [label="employment_duration <= 3.5\ngini = 0.153\nsamples = 24\nvalue = [2, 22]\nclass = Yes"] ;
174 -> 176 ;
177 [label="credit_history <= 3.5\ngini = 0.083\nsamples = 23\nvalue = [1, 22]\nclass = Yes"] ;
176 -> 177 ;
178 [label="gini = 0.0\nsamples = 20\nvalue = [0, 20]\nclass = Yes"] ;
177 -> 178 ;
179 [label="housing <= 1.5\ngini = 0.444\nsamples = 3\nvalue = [1, 2]\nclass = Yes"] ;
177 -> 179 ;
180 [label="gini = 0.0\nsamples = 1\nvalue = [1, 0]\nclass = No"] ;
179 -> 180 ;
181 [label="gini = 0.0\nsamples = 2\nvalue = [0, 2]\nclass = Yes"] ;
179 -> 181 ;
182 [label="gini = 0.0\nsamples = 1\nvalue = [1, 0]\nclass = No"] ;
176 -> 182 ;
183 [label="checking_balance <= 0.5\ngini = 0.404\nsamples = 32\nvalue = [23, 9]\nclass = No"] ;
109 -> 183 ;
184 [label="amount <= 12296.5\ngini = 0.172\nsamples = 21\nvalue = [19, 2]\nclass = No"] ;
183 -> 184 ;
185 [label="savings_balance <= 3.5\ngini = 0.095\nsamples = 20\nvalue = [19, 1]\nclass = No"] ;
184 -> 185 ;
186 [label="months_loan_duration <= 39.0\ngini = 0.444\nsamples = 3\nvalue = [2, 1]\nclass = No"] ;
185 -> 186 ;
187 [label="gini = 0.0\nsamples = 2\nvalue = [2, 0]\nclass = No"] ;
186 -> 187 ;
188 [label="gini = 0.0\nsamples = 1\nvalue = [0, 1]\nclass = Yes"] ;
186 -> 188 ;
189 [label="gini = 0.0\nsamples = 17\nvalue = [17, 0]\nclass = No"] ;
185 -> 189 ;
190 [label="gini = 0.0\nsamples = 1\nvalue = [0, 1]\nclass = Yes"] ;
184 -> 190 ;
191 [label="age <= 48.0\ngini = 0.463\nsamples = 11\nvalue = [4, 7]\nclass = Yes"] ;
183 -> 191 ;
192 [label="percent_of_income <= 2.5\ngini = 0.219\nsamples = 8\nvalue = [1, 7]\nclass = Yes"] ;
191 -> 192 ;
193 [label="housing <= 1.5\ngini = 0.5\nsamples = 2\nvalue = [1, 1]\nclass = No"] ;
192 -> 193 ;
194 [label="gini = 0.0\nsamples = 1\nvalue = [0, 1]\nclass = Yes"] ;
193 -> 194 ;
195 [label="gini = 0.0\nsamples = 1\nvalue = [1, 0]\nclass = No"] ;
193 -> 195 ;
196 [label="gini = 0.0\nsamples = 6\nvalue = [0, 6]\nclass = Yes"] ;
192 -> 196 ;
197 [label="gini = 0.0\nsamples = 3\nvalue = [3, 0]\nclass = No"] ;
191 -> 197 ;
198 [label="purpose <= 0.5\ngini = 0.245\nsamples = 322\nvalue = [276, 46]\nclass = No"] ;
0 -> 198 [labeldistance=2.5, labelangle=-45, headlabel="False"] ;
199 [label="amount <= 1825.5\ngini = 0.452\nsamples = 29\nvalue = [19, 10]\nclass = No"] ;
198 -> 199 ;
200 [label="gini = 0.0\nsamples = 9\nvalue = [9, 0]\nclass = No"] ;
199 -> 200 ;
201 [label="other_credit <= 0.5\ngini = 0.5\nsamples = 20\nvalue = [10, 10]\nclass = No"] ;
199 -> 201 ;
202 [label="age <= 43.5\ngini = 0.32\nsamples = 5\nvalue = [1, 4]\nclass = Yes"] ;
201 -> 202 ;
203 [label="gini = 0.0\nsamples = 4\nvalue = [0, 4]\nclass = Yes"] ;
202 -> 203 ;
204 [label="gini = 0.0\nsamples = 1\nvalue = [1, 0]\nclass = No"] ;
202 -> 204 ;
205 [label="percent_of_income <= 3.5\ngini = 0.48\nsamples = 15\nvalue = [9, 6]\nclass = No"] ;
201 -> 205 ;
206 [label="age <= 34.5\ngini = 0.346\nsamples = 9\nvalue = [7, 2]\nclass = No"] ;
205 -> 206 ;
207 [label="gini = 0.0\nsamples = 6\nvalue = [6, 0]\nclass = No"] ;
206 -> 207 ;
208 [label="percent_of_income <= 2.5\ngini = 0.444\nsamples = 3\nvalue = [1, 2]\nclass = Yes"] ;
206 -> 208 ;
209 [label="gini = 0.0\nsamples = 2\nvalue = [0, 2]\nclass = Yes"] ;
208 -> 209 ;
210 [label="gini = 0.0\nsamples = 1\nvalue = [1, 0]\nclass = No"] ;
208 -> 210 ;
211 [label="amount <= 2333.5\ngini = 0.444\nsamples = 6\nvalue = [2, 4]\nclass = Yes"] ;
205 -> 211 ;
212 [label="gini = 0.0\nsamples = 3\nvalue = [0, 3]\nclass = Yes"] ;
211 -> 212 ;
213 [label="amount <= 7142.0\ngini = 0.444\nsamples = 3\nvalue = [2, 1]\nclass = No"] ;
211 -> 213 ;
214 [label="gini = 0.0\nsamples = 2\nvalue = [2, 0]\nclass = No"] ;
213 -> 214 ;
215 [label="gini = 0.0\nsamples = 1\nvalue = [0, 1]\nclass = Yes"] ;
213 -> 215 ;
216 [label="age <= 19.5\ngini = 0.216\nsamples = 293\nvalue = [257, 36]\nclass = No"] ;
198 -> 216 ;
217 [label="gini = 0.0\nsamples = 1\nvalue = [0, 1]\nclass = Yes"] ;
216 -> 217 ;
218 [label="age <= 67.0\ngini = 0.211\nsamples = 292\nvalue = [257, 35]\nclass = No"] ;
216 -> 218 ;
219 [label="amount <= 10924.5\ngini = 0.206\nsamples = 291\nvalue = [257, 34]\nclass = No"] ;
218 -> 219 ;
220 [label="checking_balance <= 2.5\ngini = 0.194\nsamples = 284\nvalue = [253, 31]\nclass = No"] ;
219 -> 220 ;
221 [label="dependents <= 1.5\ngini = 0.357\nsamples = 43\nvalue = [33, 10]\nclass = No"] ;
220 -> 221 ;
222 [label="age <= 39.0\ngini = 0.278\nsamples = 36\nvalue = [30, 6]\nclass = No"] ;
221 -> 222 ;
223 [label="job <= 2.5\ngini = 0.397\nsamples = 22\nvalue = [16, 6]\nclass = No"] ;
222 -> 223 ;
224 [label="percent_of_income <= 3.5\ngini = 0.32\nsamples = 20\nvalue = [16, 4]\nclass = No"] ;
223 -> 224 ;
225 [label="gini = 0.0\nsamples = 10\nvalue = [10, 0]\nclass = No"] ;
224 -> 225 ;
226 [label="age <= 25.5\ngini = 0.48\nsamples = 10\nvalue = [6, 4]\nclass = No"] ;
224 -> 226 ;
227 [label="gini = 0.0\nsamples = 4\nvalue = [4, 0]\nclass = No"] ;
226 -> 227 ;
228 [label="employment_duration <= 2.5\ngini = 0.444\nsamples = 6\nvalue = [2, 4]\nclass = Yes"] ;
226 -> 228 ;
229 [label="savings_balance <= 3.0\ngini = 0.32\nsamples = 5\nvalue = [1, 4]\nclass = Yes"] ;
228 -> 229 ;
230 [label="gini = 0.0\nsamples = 4\nvalue = [0, 4]\nclass = Yes"] ;
229 -> 230 ;
231 [label="gini = 0.0\nsamples = 1\nvalue = [1, 0]\nclass = No"] ;
229 -> 231 ;
232 [label="gini = 0.0\nsamples = 1\nvalue = [1, 0]\nclass = No"] ;
228 -> 232 ;
233 [label="gini = 0.0\nsamples = 2\nvalue = [0, 2]\nclass = Yes"] ;
223 -> 233 ;
234 [label="gini = 0.0\nsamples = 14\nvalue = [14, 0]\nclass = No"] ;
222 -> 234 ;
235 [label="months_loan_duration <= 14.0\ngini = 0.49\nsamples = 7\nvalue = [3, 4]\nclass = Yes"] ;
221 -> 235 ;
236 [label="age <= 47.0\ngini = 0.375\nsamples = 4\nvalue = [3, 1]\nclass = No"] ;
235 -> 236 ;
237 [label="gini = 0.0\nsamples = 3\nvalue = [3, 0]\nclass = No"] ;
236 -> 237 ;
238 [label="gini = 0.0\nsamples = 1\nvalue = [0, 1]\nclass = Yes"] ;
236 -> 238 ;
239 [label="gini = 0.0\nsamples = 3\nvalue = [0, 3]\nclass = Yes"] ;
235 -> 239 ;
240 [label="credit_history <= 0.5\ngini = 0.159\nsamples = 241\nvalue = [220, 21]\nclass = No"] ;
220 -> 240 ;
241 [label="other_credit <= 0.5\ngini = 0.06\nsamples = 97\nvalue = [94, 3]\nclass = No"] ;
240 -> 241 ;
242 [label="percent_of_income <= 2.5\ngini = 0.408\nsamples = 7\nvalue = [5, 2]\nclass = No"] ;
241 -> 242 ;
243 [label="gini = 0.0\nsamples = 4\nvalue = [4, 0]\nclass = No"] ;
242 -> 243 ;
244 [label="age <= 29.5\ngini = 0.444\nsamples = 3\nvalue = [1, 2]\nclass = Yes"] ;
242 -> 244 ;
245 [label="gini = 0.0\nsamples = 1\nvalue = [1, 0]\nclass = No"] ;
244 -> 245 ;
246 [label="gini = 0.0\nsamples = 2\nvalue = [0, 2]\nclass = Yes"] ;
244 -> 246 ;
247 [label="other_credit <= 1.5\ngini = 0.022\nsamples = 90\nvalue = [89, 1]\nclass = No"] ;
241 -> 247 ;
248 [label="gini = 0.0\nsamples = 86\nvalue = [86, 0]\nclass = No"] ;
247 -> 248 ;
249 [label="purpose <= 2.5\ngini = 0.375\nsamples = 4\nvalue = [3, 1]\nclass = No"] ;
247 -> 249 ;
250 [label="gini = 0.0\nsamples = 1\nvalue = [0, 1]\nclass = Yes"] ;
249 -> 250 ;
251 [label="gini = 0.0\nsamples = 3\nvalue = [3, 0]\nclass = No"] ;
249 -> 251 ;
252 [label="purpose <= 4.5\ngini = 0.219\nsamples = 144\nvalue = [126, 18]\nclass = No"] ;
240 -> 252 ;
253 [label="amount <= 3608.0\ngini = 0.202\nsamples = 140\nvalue = [124, 16]\nclass = No"] ;
252 -> 253 ;
254 [label="months_loan_duration <= 25.5\ngini = 0.164\nsamples = 111\nvalue = [101, 10]\nclass = No"] ;
253 -> 254 ;
255 [label="job <= 2.5\ngini = 0.128\nsamples = 102\nvalue = [95, 7]\nclass = No"] ;
254 -> 255 ;
256 [label="amount <= 475.5\ngini = 0.048\nsamples = 81\nvalue = [79, 2]\nclass = No"] ;
255 -> 256 ;
257 [label="gini = 0.0\nsamples = 1\nvalue = [0, 1]\nclass = Yes"] ;
256 -> 257 ;
258 [label="other_credit <= 0.5\ngini = 0.025\nsamples = 80\nvalue = [79, 1]\nclass = No"] ;
256 -> 258 ;
259 [label="months_loan_duration <= 22.5\ngini = 0.165\nsamples = 11\nvalue = [10, 1]\nclass = No"] ;
258 -> 259 ;
260 [label="gini = 0.0\nsamples = 9\nvalue = [9, 0]\nclass = No"] ;
259 -> 260 ;
261 [label="age <= 33.5\ngini = 0.5\nsamples = 2\nvalue = [1, 1]\nclass = No"] ;
259 -> 261 ;
262 [label="gini = 0.0\nsamples = 1\nvalue = [1, 0]\nclass = No"] ;
261 -> 262 ;
263 [label="gini = 0.0\nsamples = 1\nvalue = [0, 1]\nclass = Yes"] ;
261 -> 263 ;
264 [label="gini = 0.0\nsamples = 69\nvalue = [69, 0]\nclass = No"] ;
258 -> 264 ;
265 [label="years_at_residence <= 1.5\ngini = 0.363\nsamples = 21\nvalue = [16, 5]\nclass = No"] ;
255 -> 265 ;
266 [label="gini = 0.0\nsamples = 1\nvalue = [0, 1]\nclass = Yes"] ;
265 -> 266 ;
267 [label="years_at_residence <= 3.5\ngini = 0.32\nsamples = 20\nvalue = [16, 4]\nclass = No"] ;
265 -> 267 ;
268 [label="other_credit <= 0.5\ngini = 0.153\nsamples = 12\nvalue = [11, 1]\nclass = No"] ;
267 -> 268 ;
269 [label="employment_duration <= 1.0\ngini = 0.5\nsamples = 2\nvalue = [1, 1]\nclass = No"] ;
268 -> 269 ;
270 [label="gini = 0.0\nsamples = 1\nvalue = [0, 1]\nclass = Yes"] ;
269 -> 270 ;
271 [label="gini = 0.0\nsamples = 1\nvalue = [1, 0]\nclass = No"] ;
269 -> 271 ;
272 [label="gini = 0.0\nsamples = 10\nvalue = [10, 0]\nclass = No"] ;
268 -> 272 ;
273 [label="age <= 31.0\ngini = 0.469\nsamples = 8\nvalue = [5, 3]\nclass = No"] ;
267 -> 273 ;
274 [label="gini = 0.0\nsamples = 2\nvalue = [0, 2]\nclass = Yes"] ;
273 -> 274 ;
275 [label="existing_loans_count <= 1.5\ngini = 0.278\nsamples = 6\nvalue = [5, 1]\nclass = No"] ;
273 -> 275 ;
276 [label="gini = 0.0\nsamples = 5\nvalue = [5, 0]\nclass = No"] ;
275 -> 276 ;
277 [label="gini = 0.0\nsamples = 1\nvalue = [0, 1]\nclass = Yes"] ;
275 -> 277 ;
278 [label="employment_duration <= 1.5\ngini = 0.444\nsamples = 9\nvalue = [6, 3]\nclass = No"] ;
254 -> 278 ;
279 [label="months_loan_duration <= 37.5\ngini = 0.375\nsamples = 4\nvalue = [1, 3]\nclass = Yes"] ;
278 -> 279 ;
280 [label="gini = 0.0\nsamples = 3\nvalue = [0, 3]\nclass = Yes"] ;
279 -> 280 ;
281 [label="gini = 0.0\nsamples = 1\nvalue = [1, 0]\nclass = No"] ;
279 -> 281 ;
282 [label="gini = 0.0\nsamples = 5\nvalue = [5, 0]\nclass = No"] ;
278 -> 282 ;
283 [label="amount <= 6128.0\ngini = 0.328\nsamples = 29\nvalue = [23, 6]\nclass = No"] ;
253 -> 283 ;
284 [label="existing_loans_count <= 1.5\ngini = 0.457\nsamples = 17\nvalue = [11, 6]\nclass = No"] ;
283 -> 284 ;
285 [label="savings_balance <= 1.0\ngini = 0.298\nsamples = 11\nvalue = [9, 2]\nclass = No"] ;
284 -> 285 ;
286 [label="gini = 0.0\nsamples = 1\nvalue = [0, 1]\nclass = Yes"] ;
285 -> 286 ;
287 [label="months_loan_duration <= 7.5\ngini = 0.18\nsamples = 10\nvalue = [9, 1]\nclass = No"] ;
285 -> 287 ;
288 [label="gini = 0.0\nsamples = 1\nvalue = [0, 1]\nclass = Yes"] ;
287 -> 288 ;
289 [label="gini = 0.0\nsamples = 9\nvalue = [9, 0]\nclass = No"] ;
287 -> 289 ;
290 [label="credit_history <= 2.5\ngini = 0.444\nsamples = 6\nvalue = [2, 4]\nclass = Yes"] ;
284 -> 290 ;
291 [label="gini = 0.0\nsamples = 3\nvalue = [0, 3]\nclass = Yes"] ;
290 -> 291 ;
292 [label="months_loan_duration <= 30.0\ngini = 0.444\nsamples = 3\nvalue = [2, 1]\nclass = No"] ;
290 -> 292 ;
293 [label="gini = 0.0\nsamples = 2\nvalue = [2, 0]\nclass = No"] ;
292 -> 293 ;
294 [label="gini = 0.0\nsamples = 1\nvalue = [0, 1]\nclass = Yes"] ;
292 -> 294 ;
295 [label="gini = 0.0\nsamples = 12\nvalue = [12, 0]\nclass = No"] ;
283 -> 295 ;
296 [label="employment_duration <= 1.5\ngini = 0.5\nsamples = 4\nvalue = [2, 2]\nclass = No"] ;
252 -> 296 ;
297 [label="gini = 0.0\nsamples = 2\nvalue = [2, 0]\nclass = No"] ;
296 -> 297 ;
298 [label="gini = 0.0\nsamples = 2\nvalue = [0, 2]\nclass = Yes"] ;
296 -> 298 ;
299 [label="amount <= 12714.5\ngini = 0.49\nsamples = 7\nvalue = [4, 3]\nclass = No"] ;
219 -> 299 ;
300 [label="age <= 28.0\ngini = 0.375\nsamples = 4\nvalue = [1, 3]\nclass = Yes"] ;
299 -> 300 ;
301 [label="gini = 0.0\nsamples = 2\nvalue = [0, 2]\nclass = Yes"] ;
300 -> 301 ;
302 [label="months_loan_duration <= 28.5\ngini = 0.5\nsamples = 2\nvalue = [1, 1]\nclass = No"] ;
300 -> 302 ;
303 [label="gini = 0.0\nsamples = 1\nvalue = [0, 1]\nclass = Yes"] ;
302 -> 303 ;
304 [label="gini = 0.0\nsamples = 1\nvalue = [1, 0]\nclass = No"] ;
302 -> 304 ;
305 [label="gini = 0.0\nsamples = 3\nvalue = [3, 0]\nclass = No"] ;
299 -> 305 ;
306 [label="gini = 0.0\nsamples = 1\nvalue = [0, 1]\nclass = Yes"] ;
218 -> 306 ;
}