digraph Tree {
node [shape=box] ;
0 [label="AGREEMENTID <= 11230539.5\ngini = 0.5\nsamples = 29140\nvalue = [14570, 14570]\nclass = no"] ;
1 [label="PRODUCT <= 1.0\ngini = 0.348\nsamples = 16740\nvalue = [3756, 12984]\nclass = yes"] ;
0 -> 1 [labeldistance=2.5, labelangle=45, headlabel="True"] ;
2 [label="CURRENT_INTEREST_RATE_CHANGES <= 3.999\ngini = 0.096\nsamples = 7825\nvalue = [395, 7430]\nclass = yes"] ;
1 -> 2 ;
3 [label="PAID_PRINCIPAL <= 2498.907\ngini = 0.021\nsamples = 7423\nvalue = [79, 7344]\nclass = yes"] ;
2 -> 3 ;
4 [label="gini = 0.0\nsamples = 16\nvalue = [16, 0]\nclass = no"] ;
3 -> 4 ;
5 [label="NUM_EMI_CHANGES <= 6.998\ngini = 0.017\nsamples = 7407\nvalue = [63, 7344]\nclass = yes"] ;
3 -> 5 ;
6 [label="CURRENT_INTEREST_RATE_CHANGES <= 3.0\ngini = 0.014\nsamples = 7319\nvalue = [50, 7269]\nclass = yes"] ;
5 -> 6 ;
7 [label="COMPLETED_TENURE <= 4.004\ngini = 0.009\nsamples = 6991\nvalue = [32, 6959]\nclass = yes"] ;
6 -> 7 ;
8 [label="MOB <= 18.5\ngini = 0.215\nsamples = 49\nvalue = [6, 43]\nclass = yes"] ;
7 -> 8 ;
9 [label="FOIR <= 0.925\ngini = 0.085\nsamples = 45\nvalue = [2, 43]\nclass = yes"] ;
8 -> 9 ;
10 [label="gini = 0.0\nsamples = 39\nvalue = [0, 39]\nclass = yes"] ;
9 -> 10 ;
11 [label="gini = 0.444\nsamples = 6\nvalue = [2, 4]\nclass = yes"] ;
9 -> 11 ;
12 [label="gini = 0.0\nsamples = 4\nvalue = [4, 0]\nclass = no"] ;
8 -> 12 ;
13 [label="PRE_EMI_DUEAMT <= 72537.559\ngini = 0.007\nsamples = 6942\nvalue = [26, 6916]\nclass = yes"] ;
7 -> 13 ;
14 [label="PRE_EMI_RECEIVED_AMT <= 8.34\ngini = 0.003\nsamples = 6178\nvalue = [8, 6170]\nclass = yes"] ;
13 -> 14 ;
15 [label="DIFF_ORIGINAL_CURRENT_TENOR <= -11.543\ngini = 0.064\nsamples = 90\nvalue = [3, 87]\nclass = yes"] ;
14 -> 15 ;
16 [label="gini = 0.291\nsamples = 17\nvalue = [3, 14]\nclass = yes"] ;
15 -> 16 ;
17 [label="gini = 0.0\nsamples = 73\nvalue = [0, 73]\nclass = yes"] ;
15 -> 17 ;
18 [label="NUM_LOW_FREQ_TRANSACTIONS <= 0.001\ngini = 0.002\nsamples = 6088\nvalue = [5, 6083]\nclass = yes"] ;
14 -> 18 ;
19 [label="gini = 0.06\nsamples = 65\nvalue = [2, 63]\nclass = yes"] ;
18 -> 19 ;
20 [label="gini = 0.001\nsamples = 6023\nvalue = [3, 6020]\nclass = yes"] ;
18 -> 20 ;
21 [label="LOAN_AMT <= 7709835.5\ngini = 0.046\nsamples = 764\nvalue = [18, 746]\nclass = yes"] ;
13 -> 21 ;
22 [label="NET_LTV <= 72.375\ngini = 0.493\nsamples = 25\nvalue = [11, 14]\nclass = yes"] ;
21 -> 22 ;
23 [label="gini = 0.388\nsamples = 19\nvalue = [5, 14]\nclass = yes"] ;
22 -> 23 ;
24 [label="gini = 0.0\nsamples = 6\nvalue = [6, 0]\nclass = no"] ;
22 -> 24 ;
25 [label="COMPLETED_TENURE <= 10.009\ngini = 0.019\nsamples = 739\nvalue = [7, 732]\nclass = yes"] ;
21 -> 25 ;
26 [label="gini = 0.257\nsamples = 33\nvalue = [5, 28]\nclass = yes"] ;
25 -> 26 ;
27 [label="gini = 0.006\nsamples = 706\nvalue = [2, 704]\nclass = yes"] ;
25 -> 27 ;
28 [label="AGREEMENTID <= 11227873.5\ngini = 0.104\nsamples = 328\nvalue = [18, 310]\nclass = yes"] ;
6 -> 28 ;
29 [label="COMPLETED_TENURE <= 35.095\ngini = 0.019\nsamples = 311\nvalue = [3, 308]\nclass = yes"] ;
28 -> 29 ;
30 [label="NET_LTV <= 63.304\ngini = 0.32\nsamples = 10\nvalue = [2, 8]\nclass = yes"] ;
29 -> 30 ;
31 [label="gini = 0.5\nsamples = 4\nvalue = [2, 2]\nclass = no"] ;
30 -> 31 ;
32 [label="gini = 0.0\nsamples = 6\nvalue = [0, 6]\nclass = yes"] ;
30 -> 32 ;
33 [label="DIFF_CURRENT_INTEREST_RATE_MAX_MIN <= 2.95\ngini = 0.007\nsamples = 301\nvalue = [1, 300]\nclass = yes"] ;
29 -> 33 ;
34 [label="gini = 0.0\nsamples = 296\nvalue = [0, 296]\nclass = yes"] ;
33 -> 34 ;
35 [label="gini = 0.32\nsamples = 5\nvalue = [1, 4]\nclass = yes"] ;
33 -> 35 ;
36 [label="COMPLETED_TENURE <= 30.0\ngini = 0.208\nsamples = 17\nvalue = [15, 2]\nclass = no"] ;
28 -> 36 ;
37 [label="gini = 0.5\nsamples = 4\nvalue = [2, 2]\nclass = no"] ;
36 -> 37 ;
38 [label="gini = 0.0\nsamples = 13\nvalue = [13, 0]\nclass = no"] ;
36 -> 38 ;
39 [label="PRE_EMI_DUEAMT <= 52734.744\ngini = 0.252\nsamples = 88\nvalue = [13, 75]\nclass = yes"] ;
5 -> 39 ;
40 [label="EXCESS_AVAILABLE <= 0.663\ngini = 0.058\nsamples = 67\nvalue = [2, 65]\nclass = yes"] ;
39 -> 40 ;
41 [label="gini = 0.5\nsamples = 4\nvalue = [2, 2]\nclass = no"] ;
40 -> 41 ;
42 [label="gini = 0.0\nsamples = 63\nvalue = [0, 63]\nclass = yes"] ;
40 -> 42 ;
43 [label="COMPLETED_TENURE <= 2.5\ngini = 0.499\nsamples = 21\nvalue = [11, 10]\nclass = no"] ;
39 -> 43 ;
44 [label="gini = 0.0\nsamples = 5\nvalue = [0, 5]\nclass = yes"] ;
43 -> 44 ;
45 [label="BALANCE_TENURE <= 151.0\ngini = 0.43\nsamples = 16\nvalue = [11, 5]\nclass = no"] ;
43 -> 45 ;
46 [label="gini = 0.408\nsamples = 7\nvalue = [2, 5]\nclass = yes"] ;
45 -> 46 ;
47 [label="gini = 0.0\nsamples = 9\nvalue = [9, 0]\nclass = no"] ;
45 -> 47 ;
48 [label="CURRENT_INTEREST_RATE <= 11.794\ngini = 0.336\nsamples = 402\nvalue = [316, 86]\nclass = no"] ;
2 -> 48 ;
49 [label="NET_RECEIVABLE <= 26.062\ngini = 0.108\nsamples = 35\nvalue = [2, 33]\nclass = yes"] ;
48 -> 49 ;
50 [label="gini = 0.0\nsamples = 29\nvalue = [0, 29]\nclass = yes"] ;
49 -> 50 ;
51 [label="gini = 0.444\nsamples = 6\nvalue = [2, 4]\nclass = yes"] ;
49 -> 51 ;
52 [label="PRODUCT <= 0.006\ngini = 0.247\nsamples = 367\nvalue = [314, 53]\nclass = no"] ;
48 -> 52 ;
53 [label="NUM_EMI_CHANGES <= 1.99\ngini = 0.223\nsamples = 360\nvalue = [314, 46]\nclass = no"] ;
52 -> 53 ;
54 [label="NUM_EMI_CHANGES <= 1.061\ngini = 0.463\nsamples = 74\nvalue = [47, 27]\nclass = no"] ;
53 -> 54 ;
55 [label="LOAN_AMT <= 9726342.0\ngini = 0.354\nsamples = 61\nvalue = [47, 14]\nclass = no"] ;
54 -> 55 ;
56 [label="ORIGNAL_INTEREST_RATE <= 14.372\ngini = 0.229\nsamples = 53\nvalue = [46, 7]\nclass = no"] ;
55 -> 56 ;
57 [label="ORIGNAL_INTEREST_RATE <= 14.134\ngini = 0.117\nsamples = 48\nvalue = [45, 3]\nclass = no"] ;
56 -> 57 ;
58 [label="gini = 0.048\nsamples = 41\nvalue = [40, 1]\nclass = no"] ;
57 -> 58 ;
59 [label="gini = 0.408\nsamples = 7\nvalue = [5, 2]\nclass = no"] ;
57 -> 59 ;
60 [label="gini = 0.32\nsamples = 5\nvalue = [1, 4]\nclass = yes"] ;
56 -> 60 ;
61 [label="ORIGNAL_INTEREST_RATE <= 12.929\ngini = 0.219\nsamples = 8\nvalue = [1, 7]\nclass = yes"] ;
55 -> 61 ;
62 [label="gini = 0.375\nsamples = 4\nvalue = [1, 3]\nclass = yes"] ;
61 -> 62 ;
63 [label="gini = 0.0\nsamples = 4\nvalue = [0, 4]\nclass = yes"] ;
61 -> 63 ;
64 [label="gini = 0.0\nsamples = 13\nvalue = [0, 13]\nclass = yes"] ;
54 -> 64 ;
65 [label="CURRENT_INTEREST_RATE <= 12.08\ngini = 0.124\nsamples = 286\nvalue = [267, 19]\nclass = no"] ;
53 -> 65 ;
66 [label="EMI_AMOUNT <= 41335.0\ngini = 0.457\nsamples = 17\nvalue = [11, 6]\nclass = no"] ;
65 -> 66 ;
67 [label="gini = 0.0\nsamples = 11\nvalue = [11, 0]\nclass = no"] ;
66 -> 67 ;
68 [label="gini = 0.0\nsamples = 6\nvalue = [0, 6]\nclass = yes"] ;
66 -> 68 ;
69 [label="DIFF_ORIGINAL_CURRENT_TENOR <= 12.144\ngini = 0.092\nsamples = 269\nvalue = [256, 13]\nclass = no"] ;
65 -> 69 ;
70 [label="ORIGNAL_TENOR <= 256.5\ngini = 0.012\nsamples = 170\nvalue = [169, 1]\nclass = no"] ;
69 -> 70 ;
71 [label="gini = 0.0\nsamples = 164\nvalue = [164, 0]\nclass = no"] ;
70 -> 71 ;
72 [label="gini = 0.278\nsamples = 6\nvalue = [5, 1]\nclass = no"] ;
70 -> 72 ;
73 [label="CURRENT_INTEREST_RATE_CHANGES <= 4.724\ngini = 0.213\nsamples = 99\nvalue = [87, 12]\nclass = no"] ;
69 -> 73 ;
74 [label="AGREEMENTID <= 11223079.5\ngini = 0.43\nsamples = 32\nvalue = [22, 10]\nclass = no"] ;
73 -> 74 ;
75 [label="gini = 0.397\nsamples = 11\nvalue = [3, 8]\nclass = yes"] ;
74 -> 75 ;
76 [label="gini = 0.172\nsamples = 21\nvalue = [19, 2]\nclass = no"] ;
74 -> 76 ;
77 [label="NUM_LOW_FREQ_TRANSACTIONS <= 3.5\ngini = 0.058\nsamples = 67\nvalue = [65, 2]\nclass = no"] ;
73 -> 77 ;
78 [label="gini = 0.245\nsamples = 14\nvalue = [12, 2]\nclass = no"] ;
77 -> 78 ;
79 [label="gini = 0.0\nsamples = 53\nvalue = [53, 0]\nclass = no"] ;
77 -> 79 ;
80 [label="gini = 0.0\nsamples = 7\nvalue = [0, 7]\nclass = yes"] ;
52 -> 80 ;
81 [label="PRODUCT <= 1.0\ngini = 0.47\nsamples = 8915\nvalue = [3361, 5554]\nclass = yes"] ;
1 -> 81 ;
82 [label="ORIGNAL_INTEREST_RATE <= 20.523\ngini = 0.002\nsamples = 1823\nvalue = [1821, 2]\nclass = no"] ;
81 -> 82 ;
83 [label="ORIGNAL_INTEREST_RATE <= 17.948\ngini = 0.001\nsamples = 1819\nvalue = [1818, 1]\nclass = no"] ;
82 -> 83 ;
84 [label="gini = 0.0\nsamples = 1807\nvalue = [1807, 0]\nclass = no"] ;
83 -> 84 ;
85 [label="AGREEMENTID <= 11221746.5\ngini = 0.153\nsamples = 12\nvalue = [11, 1]\nclass = no"] ;
83 -> 85 ;
86 [label="gini = 0.375\nsamples = 4\nvalue = [3, 1]\nclass = no"] ;
85 -> 86 ;
87 [label="gini = 0.0\nsamples = 8\nvalue = [8, 0]\nclass = no"] ;
85 -> 87 ;
88 [label="gini = 0.375\nsamples = 4\nvalue = [3, 1]\nclass = no"] ;
82 -> 88 ;
89 [label="PRODUCT <= 2.5\ngini = 0.34\nsamples = 7092\nvalue = [1540, 5552]\nclass = yes"] ;
81 -> 89 ;
90 [label="NUM_LOW_FREQ_TRANSACTIONS <= 5.999\ngini = 0.254\nsamples = 6525\nvalue = [973, 5552]\nclass = yes"] ;
89 -> 90 ;
91 [label="MOB <= 28.999\ngini = 0.179\nsamples = 5885\nvalue = [586, 5299]\nclass = yes"] ;
90 -> 91 ;
92 [label="MOB <= 2.281\ngini = 0.026\nsamples = 3527\nvalue = [47, 3480]\nclass = yes"] ;
91 -> 92 ;
93 [label="gini = 0.0\nsamples = 18\nvalue = [18, 0]\nclass = no"] ;
92 -> 93 ;
94 [label="CURRENT_INTEREST_RATE_MAX <= 14.047\ngini = 0.016\nsamples = 3509\nvalue = [29, 3480]\nclass = yes"] ;
92 -> 94 ;
95 [label="FOIR <= 0.255\ngini = 0.144\nsamples = 218\nvalue = [17, 201]\nclass = yes"] ;
94 -> 95 ;
96 [label="gini = 0.0\nsamples = 4\nvalue = [4, 0]\nclass = no"] ;
95 -> 96 ;
97 [label="NET_LTV <= 75.925\ngini = 0.114\nsamples = 214\nvalue = [13, 201]\nclass = yes"] ;
95 -> 97 ;
98 [label="gini = 0.061\nsamples = 190\nvalue = [6, 184]\nclass = yes"] ;
97 -> 98 ;
99 [label="gini = 0.413\nsamples = 24\nvalue = [7, 17]\nclass = yes"] ;
97 -> 99 ;
100 [label="CITY <= 2.257\ngini = 0.007\nsamples = 3291\nvalue = [12, 3279]\nclass = yes"] ;
94 -> 100 ;
101 [label="MOB <= 17.06\ngini = 0.236\nsamples = 22\nvalue = [3, 19]\nclass = yes"] ;
100 -> 101 ;
102 [label="gini = 0.48\nsamples = 5\nvalue = [3, 2]\nclass = no"] ;
101 -> 102 ;
103 [label="gini = 0.0\nsamples = 17\nvalue = [0, 17]\nclass = yes"] ;
101 -> 103 ;
104 [label="AGREEMENTID <= 11230528.0\ngini = 0.005\nsamples = 3269\nvalue = [9, 3260]\nclass = yes"] ;
100 -> 104 ;
105 [label="gini = 0.005\nsamples = 3265\nvalue = [8, 3257]\nclass = yes"] ;
104 -> 105 ;
106 [label="gini = 0.375\nsamples = 4\nvalue = [1, 3]\nclass = yes"] ;
104 -> 106 ;
107 [label="AGREEMENTID <= 11228028.0\ngini = 0.353\nsamples = 2358\nvalue = [539, 1819]\nclass = yes"] ;
91 -> 107 ;
108 [label="MOB <= 38.986\ngini = 0.232\nsamples = 2062\nvalue = [276, 1786]\nclass = yes"] ;
107 -> 108 ;
109 [label="AGREEMENTID <= 11227485.0\ngini = 0.055\nsamples = 1130\nvalue = [32, 1098]\nclass = yes"] ;
108 -> 109 ;
110 [label="ORIGNAL_TENOR <= 120.049\ngini = 0.002\nsamples = 1041\nvalue = [1, 1040]\nclass = yes"] ;
109 -> 110 ;
111 [label="gini = 0.077\nsamples = 25\nvalue = [1, 24]\nclass = yes"] ;
110 -> 111 ;
112 [label="gini = 0.0\nsamples = 1016\nvalue = [0, 1016]\nclass = yes"] ;
110 -> 112 ;
113 [label="MOB <= 35.981\ngini = 0.454\nsamples = 89\nvalue = [31, 58]\nclass = yes"] ;
109 -> 113 ;
114 [label="gini = 0.0\nsamples = 57\nvalue = [0, 57]\nclass = yes"] ;
113 -> 114 ;
115 [label="gini = 0.061\nsamples = 32\nvalue = [31, 1]\nclass = no"] ;
113 -> 115 ;
116 [label="AGREEMENTID <= 11225484.0\ngini = 0.387\nsamples = 932\nvalue = [244, 688]\nclass = yes"] ;
108 -> 116 ;
117 [label="MOB <= 54.49\ngini = 0.249\nsamples = 748\nvalue = [109, 639]\nclass = yes"] ;
116 -> 117 ;
118 [label="gini = 0.158\nsamples = 672\nvalue = [58, 614]\nclass = yes"] ;
117 -> 118 ;
119 [label="gini = 0.441\nsamples = 76\nvalue = [51, 25]\nclass = no"] ;
117 -> 119 ;
120 [label="NUM_LOW_FREQ_TRANSACTIONS <= 5.009\ngini = 0.391\nsamples = 184\nvalue = [135, 49]\nclass = no"] ;
116 -> 120 ;
121 [label="gini = 0.304\nsamples = 166\nvalue = [135, 31]\nclass = no"] ;
120 -> 121 ;
122 [label="gini = 0.0\nsamples = 18\nvalue = [0, 18]\nclass = yes"] ;
120 -> 122 ;
123 [label="NUM_LOW_FREQ_TRANSACTIONS <= 5.102\ngini = 0.198\nsamples = 296\nvalue = [263, 33]\nclass = no"] ;
107 -> 123 ;
124 [label="ORIGNAL_INTEREST_RATE <= 16.293\ngini = 0.153\nsamples = 287\nvalue = [263, 24]\nclass = no"] ;
123 -> 124 ;
125 [label="NET_RECEIVABLE <= 8.945\ngini = 0.074\nsamples = 260\nvalue = [250, 10]\nclass = no"] ;
124 -> 125 ;
126 [label="gini = 0.054\nsamples = 253\nvalue = [246, 7]\nclass = no"] ;
125 -> 126 ;
127 [label="gini = 0.49\nsamples = 7\nvalue = [4, 3]\nclass = no"] ;
125 -> 127 ;
128 [label="NUM_EMI_CHANGES <= 3.68\ngini = 0.499\nsamples = 27\nvalue = [13, 14]\nclass = yes"] ;
124 -> 128 ;
129 [label="gini = 0.0\nsamples = 10\nvalue = [10, 0]\nclass = no"] ;
128 -> 129 ;
130 [label="gini = 0.291\nsamples = 17\nvalue = [3, 14]\nclass = yes"] ;
128 -> 130 ;
131 [label="gini = 0.0\nsamples = 9\nvalue = [0, 9]\nclass = yes"] ;
123 -> 131 ;
132 [label="MOB <= 28.801\ngini = 0.478\nsamples = 640\nvalue = [387, 253]\nclass = no"] ;
90 -> 132 ;
133 [label="AGREEMENTID <= 11229517.0\ngini = 0.169\nsamples = 75\nvalue = [7, 68]\nclass = yes"] ;
132 -> 133 ;
134 [label="CURRENT_INTEREST_RATE_MAX <= 13.539\ngini = 0.067\nsamples = 58\nvalue = [2, 56]\nclass = yes"] ;
133 -> 134 ;
135 [label="gini = 0.375\nsamples = 4\nvalue = [1, 3]\nclass = yes"] ;
134 -> 135 ;
136 [label="PRE_EMI_RECEIVED_AMT <= 4215.052\ngini = 0.036\nsamples = 54\nvalue = [1, 53]\nclass = yes"] ;
134 -> 136 ;
137 [label="gini = 0.375\nsamples = 4\nvalue = [1, 3]\nclass = yes"] ;
136 -> 137 ;
138 [label="gini = 0.0\nsamples = 50\nvalue = [0, 50]\nclass = yes"] ;
136 -> 138 ;
139 [label="CITY <= 98.325\ngini = 0.415\nsamples = 17\nvalue = [5, 12]\nclass = yes"] ;
133 -> 139 ;
140 [label="gini = 0.375\nsamples = 4\nvalue = [3, 1]\nclass = no"] ;
139 -> 140 ;
141 [label="CURRENT_INTEREST_RATE <= 14.722\ngini = 0.26\nsamples = 13\nvalue = [2, 11]\nclass = yes"] ;
139 -> 141 ;
142 [label="gini = 0.5\nsamples = 4\nvalue = [2, 2]\nclass = no"] ;
141 -> 142 ;
143 [label="gini = 0.0\nsamples = 9\nvalue = [0, 9]\nclass = yes"] ;
141 -> 143 ;
144 [label="AGREEMENTID <= 11224734.5\ngini = 0.44\nsamples = 565\nvalue = [380, 185]\nclass = no"] ;
132 -> 144 ;
145 [label="MOB <= 52.873\ngini = 0.496\nsamples = 210\nvalue = [96, 114]\nclass = yes"] ;
144 -> 145 ;
146 [label="AGREEMENTID <= 11224462.5\ngini = 0.193\nsamples = 111\nvalue = [12, 99]\nclass = yes"] ;
145 -> 146 ;
147 [label="PAID_PRINCIPAL <= 55891.74\ngini = 0.061\nsamples = 95\nvalue = [3, 92]\nclass = yes"] ;
146 -> 147 ;
148 [label="gini = 0.5\nsamples = 4\nvalue = [2, 2]\nclass = no"] ;
147 -> 148 ;
149 [label="gini = 0.022\nsamples = 91\nvalue = [1, 90]\nclass = yes"] ;
147 -> 149 ;
150 [label="MOB <= 46.314\ngini = 0.492\nsamples = 16\nvalue = [9, 7]\nclass = no"] ;
146 -> 150 ;
151 [label="gini = 0.0\nsamples = 7\nvalue = [0, 7]\nclass = yes"] ;
150 -> 151 ;
152 [label="gini = 0.0\nsamples = 9\nvalue = [9, 0]\nclass = no"] ;
150 -> 152 ;
153 [label="AGREEMENTID <= 11222574.0\ngini = 0.257\nsamples = 99\nvalue = [84, 15]\nclass = no"] ;
145 -> 153 ;
154 [label="BALANCE_TENURE <= 118.0\ngini = 0.411\nsamples = 38\nvalue = [27, 11]\nclass = no"] ;
153 -> 154 ;
155 [label="gini = 0.172\nsamples = 21\nvalue = [19, 2]\nclass = no"] ;
154 -> 155 ;
156 [label="gini = 0.498\nsamples = 17\nvalue = [8, 9]\nclass = yes"] ;
154 -> 156 ;
157 [label="NET_LTV <= 60.832\ngini = 0.123\nsamples = 61\nvalue = [57, 4]\nclass = no"] ;
153 -> 157 ;
158 [label="gini = 0.0\nsamples = 32\nvalue = [32, 0]\nclass = no"] ;
157 -> 158 ;
159 [label="gini = 0.238\nsamples = 29\nvalue = [25, 4]\nclass = no"] ;
157 -> 159 ;
160 [label="MOB <= 32.846\ngini = 0.32\nsamples = 355\nvalue = [284, 71]\nclass = no"] ;
144 -> 160 ;
161 [label="AGREEMENTID <= 11228372.0\ngini = 0.487\nsamples = 100\nvalue = [58, 42]\nclass = no"] ;
160 -> 161 ;
162 [label="gini = 0.0\nsamples = 37\nvalue = [0, 37]\nclass = yes"] ;
161 -> 162 ;
163 [label="AGREEMENTID <= 11229276.0\ngini = 0.146\nsamples = 63\nvalue = [58, 5]\nclass = no"] ;
161 -> 163 ;
164 [label="gini = 0.473\nsamples = 13\nvalue = [8, 5]\nclass = no"] ;
163 -> 164 ;
165 [label="gini = 0.0\nsamples = 50\nvalue = [50, 0]\nclass = no"] ;
163 -> 165 ;
166 [label="PRODUCT <= 1.905\ngini = 0.202\nsamples = 255\nvalue = [226, 29]\nclass = no"] ;
160 -> 166 ;
167 [label="gini = 0.0\nsamples = 4\nvalue = [0, 4]\nclass = yes"] ;
166 -> 167 ;
168 [label="NET_LTV <= 13.65\ngini = 0.179\nsamples = 251\nvalue = [226, 25]\nclass = no"] ;
166 -> 168 ;
169 [label="gini = 0.48\nsamples = 5\nvalue = [2, 3]\nclass = yes"] ;
168 -> 169 ;
170 [label="gini = 0.163\nsamples = 246\nvalue = [224, 22]\nclass = no"] ;
168 -> 170 ;
171 [label="gini = 0.0\nsamples = 567\nvalue = [567, 0]\nclass = no"] ;
89 -> 171 ;
172 [label="AGREEMENTID <= 11238148.5\ngini = 0.223\nsamples = 12400\nvalue = [10814, 1586]\nclass = no"] ;
0 -> 172 [labeldistance=2.5, labelangle=-45, headlabel="False"] ;
173 [label="MOB <= 13.995\ngini = 0.4\nsamples = 4882\nvalue = [3534, 1348]\nclass = no"] ;
172 -> 173 ;
174 [label="MOB <= 2.093\ngini = 0.391\nsamples = 1272\nvalue = [339, 933]\nclass = yes"] ;
173 -> 174 ;
175 [label="AGREEMENTID <= 11238063.5\ngini = 0.04\nsamples = 146\nvalue = [143, 3]\nclass = no"] ;
174 -> 175 ;
176 [label="PAID_PRINCIPAL <= 11855.733\ngini = 0.014\nsamples = 141\nvalue = [140, 1]\nclass = no"] ;
175 -> 176 ;
177 [label="gini = 0.0\nsamples = 137\nvalue = [137, 0]\nclass = no"] ;
176 -> 177 ;
178 [label="gini = 0.375\nsamples = 4\nvalue = [3, 1]\nclass = no"] ;
176 -> 178 ;
179 [label="gini = 0.48\nsamples = 5\nvalue = [3, 2]\nclass = no"] ;
175 -> 179 ;
180 [label="PRODUCT <= 2.5\ngini = 0.288\nsamples = 1126\nvalue = [196, 930]\nclass = yes"] ;
174 -> 180 ;
181 [label="NUM_LOW_FREQ_TRANSACTIONS <= 1.008\ngini = 0.238\nsamples = 1079\nvalue = [149, 930]\nclass = yes"] ;
180 -> 181 ;
182 [label="PRODUCT <= 0.997\ngini = 0.46\nsamples = 187\nvalue = [67, 120]\nclass = yes"] ;
181 -> 182 ;
183 [label="gini = 0.0\nsamples = 71\nvalue = [0, 71]\nclass = yes"] ;
182 -> 183 ;
184 [label="PRODUCT <= 1.005\ngini = 0.488\nsamples = 116\nvalue = [67, 49]\nclass = no"] ;
182 -> 184 ;
185 [label="gini = 0.0\nsamples = 59\nvalue = [59, 0]\nclass = no"] ;
184 -> 185 ;
186 [label="PRE_EMI_RECEIVED_AMT <= 6749.335\ngini = 0.241\nsamples = 57\nvalue = [8, 49]\nclass = yes"] ;
184 -> 186 ;
187 [label="CURRENT_INTEREST_RATE_MAX <= 14.996\ngini = 0.469\nsamples = 8\nvalue = [5, 3]\nclass = no"] ;
186 -> 187 ;
188 [label="gini = 0.0\nsamples = 4\nvalue = [4, 0]\nclass = no"] ;
187 -> 188 ;
189 [label="gini = 0.375\nsamples = 4\nvalue = [1, 3]\nclass = yes"] ;
187 -> 189 ;
190 [label="EMI_RECEIVED_AMT <= 20983.484\ngini = 0.115\nsamples = 49\nvalue = [3, 46]\nclass = yes"] ;
186 -> 190 ;
191 [label="gini = 0.5\nsamples = 4\nvalue = [2, 2]\nclass = no"] ;
190 -> 191 ;
192 [label="gini = 0.043\nsamples = 45\nvalue = [1, 44]\nclass = yes"] ;
190 -> 192 ;
193 [label="NET_RECEIVABLE <= 26.454\ngini = 0.167\nsamples = 892\nvalue = [82, 810]\nclass = yes"] ;
181 -> 193 ;
194 [label="FOIR <= 0.176\ngini = 0.141\nsamples = 868\nvalue = [66, 802]\nclass = yes"] ;
193 -> 194 ;
195 [label="gini = 0.0\nsamples = 6\nvalue = [6, 0]\nclass = no"] ;
194 -> 195 ;
196 [label="NUM_EMI_CHANGES <= 1.018\ngini = 0.13\nsamples = 862\nvalue = [60, 802]\nclass = yes"] ;
194 -> 196 ;
197 [label="PRODUCT <= 0.596\ngini = 0.469\nsamples = 40\nvalue = [15, 25]\nclass = yes"] ;
196 -> 197 ;
198 [label="gini = 0.0\nsamples = 25\nvalue = [0, 25]\nclass = yes"] ;
197 -> 198 ;
199 [label="gini = 0.0\nsamples = 15\nvalue = [15, 0]\nclass = no"] ;
197 -> 199 ;
200 [label="EXCESS_AVAILABLE <= 7708.921\ngini = 0.103\nsamples = 822\nvalue = [45, 777]\nclass = yes"] ;
196 -> 200 ;
201 [label="gini = 0.065\nsamples = 738\nvalue = [25, 713]\nclass = yes"] ;
200 -> 201 ;
202 [label="gini = 0.363\nsamples = 84\nvalue = [20, 64]\nclass = yes"] ;
200 -> 202 ;
203 [label="PAID_PRINCIPAL <= 71298.793\ngini = 0.444\nsamples = 24\nvalue = [16, 8]\nclass = no"] ;
193 -> 203 ;
204 [label="PAID_PRINCIPAL <= 41667.49\ngini = 0.463\nsamples = 11\nvalue = [4, 7]\nclass = yes"] ;
203 -> 204 ;
205 [label="gini = 0.444\nsamples = 6\nvalue = [4, 2]\nclass = no"] ;
204 -> 205 ;
206 [label="gini = 0.0\nsamples = 5\nvalue = [0, 5]\nclass = yes"] ;
204 -> 206 ;
207 [label="EMI_RECEIVED_AMT <= 842207.031\ngini = 0.142\nsamples = 13\nvalue = [12, 1]\nclass = no"] ;
203 -> 207 ;
208 [label="gini = 0.0\nsamples = 9\nvalue = [9, 0]\nclass = no"] ;
207 -> 208 ;
209 [label="gini = 0.375\nsamples = 4\nvalue = [3, 1]\nclass = no"] ;
207 -> 209 ;
210 [label="gini = 0.0\nsamples = 47\nvalue = [47, 0]\nclass = no"] ;
180 -> 210 ;
211 [label="AGREEMENTID <= 11233585.5\ngini = 0.203\nsamples = 3610\nvalue = [3195, 415]\nclass = no"] ;
173 -> 211 ;
212 [label="MOB <= 20.875\ngini = 0.321\nsamples = 1605\nvalue = [1282, 323]\nclass = no"] ;
211 -> 212 ;
213 [label="PRODUCT <= 2.5\ngini = 0.384\nsamples = 375\nvalue = [97, 278]\nclass = yes"] ;
212 -> 213 ;
214 [label="PRODUCT <= 1.045\ngini = 0.319\nsamples = 347\nvalue = [69, 278]\nclass = yes"] ;
213 -> 214 ;
215 [label="PRODUCT <= 0.941\ngini = 0.49\nsamples = 93\nvalue = [53, 40]\nclass = no"] ;
214 -> 215 ;
216 [label="gini = 0.0\nsamples = 40\nvalue = [0, 40]\nclass = yes"] ;
215 -> 216 ;
217 [label="gini = 0.0\nsamples = 53\nvalue = [53, 0]\nclass = no"] ;
215 -> 217 ;
218 [label="NUM_LOW_FREQ_TRANSACTIONS <= 5.558\ngini = 0.118\nsamples = 254\nvalue = [16, 238]\nclass = yes"] ;
214 -> 218 ;
219 [label="CURRENT_INTEREST_RATE_MAX <= 13.785\ngini = 0.091\nsamples = 250\nvalue = [12, 238]\nclass = yes"] ;
218 -> 219 ;
220 [label="NUM_LOW_FREQ_TRANSACTIONS <= 2.268\ngini = 0.423\nsamples = 23\nvalue = [7, 16]\nclass = yes"] ;
219 -> 220 ;
221 [label="gini = 0.346\nsamples = 9\nvalue = [7, 2]\nclass = no"] ;
220 -> 221 ;
222 [label="gini = 0.0\nsamples = 14\nvalue = [0, 14]\nclass = yes"] ;
220 -> 222 ;
223 [label="PAID_INTEREST <= 104901.402\ngini = 0.043\nsamples = 227\nvalue = [5, 222]\nclass = yes"] ;
219 -> 223 ;
224 [label="gini = 0.444\nsamples = 6\nvalue = [2, 4]\nclass = yes"] ;
223 -> 224 ;
225 [label="gini = 0.027\nsamples = 221\nvalue = [3, 218]\nclass = yes"] ;
223 -> 225 ;
226 [label="gini = 0.0\nsamples = 4\nvalue = [4, 0]\nclass = no"] ;
218 -> 226 ;
227 [label="gini = 0.0\nsamples = 28\nvalue = [28, 0]\nclass = no"] ;
213 -> 227 ;
228 [label="PRODUCT <= 0.869\ngini = 0.07\nsamples = 1230\nvalue = [1185, 45]\nclass = no"] ;
212 -> 228 ;
229 [label="DIFF_CURRENT_INTEREST_RATE_MAX_MIN <= 0.967\ngini = 0.444\nsamples = 36\nvalue = [24, 12]\nclass = no"] ;
228 -> 229 ;
230 [label="gini = 0.0\nsamples = 10\nvalue = [0, 10]\nclass = yes"] ;
229 -> 230 ;
231 [label="PAID_INTEREST <= 1332155.312\ngini = 0.142\nsamples = 26\nvalue = [24, 2]\nclass = no"] ;
229 -> 231 ;
232 [label="gini = 0.0\nsamples = 22\nvalue = [22, 0]\nclass = no"] ;
231 -> 232 ;
233 [label="gini = 0.5\nsamples = 4\nvalue = [2, 2]\nclass = no"] ;
231 -> 233 ;
234 [label="EMI_RECEIVED_AMT <= 203170.016\ngini = 0.054\nsamples = 1194\nvalue = [1161, 33]\nclass = no"] ;
228 -> 234 ;
235 [label="PAID_PRINCIPAL <= 20083.113\ngini = 0.369\nsamples = 41\nvalue = [31, 10]\nclass = no"] ;
234 -> 235 ;
236 [label="gini = 0.0\nsamples = 22\nvalue = [22, 0]\nclass = no"] ;
235 -> 236 ;
237 [label="BALANCE_EXCESS <= 54.482\ngini = 0.499\nsamples = 19\nvalue = [9, 10]\nclass = yes"] ;
235 -> 237 ;
238 [label="gini = 0.0\nsamples = 6\nvalue = [6, 0]\nclass = no"] ;
237 -> 238 ;
239 [label="NET_RECEIVABLE <= -42.987\ngini = 0.355\nsamples = 13\nvalue = [3, 10]\nclass = yes"] ;
237 -> 239 ;
240 [label="gini = 0.375\nsamples = 4\nvalue = [3, 1]\nclass = no"] ;
239 -> 240 ;
241 [label="gini = 0.0\nsamples = 9\nvalue = [0, 9]\nclass = yes"] ;
239 -> 241 ;
242 [label="NET_RECEIVABLE <= -0.008\ngini = 0.039\nsamples = 1153\nvalue = [1130, 23]\nclass = no"] ;
234 -> 242 ;
243 [label="AGREEMENTID <= 11231498.0\ngini = 0.103\nsamples = 387\nvalue = [366, 21]\nclass = no"] ;
242 -> 243 ;
244 [label="MOB <= 25.914\ngini = 0.23\nsamples = 136\nvalue = [118, 18]\nclass = no"] ;
243 -> 244 ;
245 [label="gini = 0.363\nsamples = 21\nvalue = [5, 16]\nclass = yes"] ;
244 -> 245 ;
246 [label="gini = 0.034\nsamples = 115\nvalue = [113, 2]\nclass = no"] ;
244 -> 246 ;
247 [label="NET_RECEIVABLE <= -0.243\ngini = 0.024\nsamples = 251\nvalue = [248, 3]\nclass = no"] ;
243 -> 247 ;
248 [label="gini = 0.008\nsamples = 247\nvalue = [246, 1]\nclass = no"] ;
247 -> 248 ;
249 [label="gini = 0.5\nsamples = 4\nvalue = [2, 2]\nclass = no"] ;
247 -> 249 ;
250 [label="AGREEMENTID <= 11230559.0\ngini = 0.005\nsamples = 766\nvalue = [764, 2]\nclass = no"] ;
242 -> 250 ;
251 [label="gini = 0.375\nsamples = 4\nvalue = [3, 1]\nclass = no"] ;
250 -> 251 ;
252 [label="CITY <= 7.0\ngini = 0.003\nsamples = 762\nvalue = [761, 1]\nclass = no"] ;
250 -> 252 ;
253 [label="gini = 0.034\nsamples = 57\nvalue = [56, 1]\nclass = no"] ;
252 -> 253 ;
254 [label="gini = 0.0\nsamples = 705\nvalue = [705, 0]\nclass = no"] ;
252 -> 254 ;
255 [label="EXCESS_AVAILABLE <= 1337.113\ngini = 0.088\nsamples = 2005\nvalue = [1913, 92]\nclass = no"] ;
211 -> 255 ;
256 [label="NUM_LOW_FREQ_TRANSACTIONS <= 0.99\ngini = 0.035\nsamples = 1336\nvalue = [1312, 24]\nclass = no"] ;
255 -> 256 ;
257 [label="NET_LTV <= 68.602\ngini = 0.35\nsamples = 31\nvalue = [24, 7]\nclass = no"] ;
256 -> 257 ;
258 [label="gini = 0.0\nsamples = 23\nvalue = [23, 0]\nclass = no"] ;
257 -> 258 ;
259 [label="NET_LTV <= 77.175\ngini = 0.219\nsamples = 8\nvalue = [1, 7]\nclass = yes"] ;
257 -> 259 ;
260 [label="gini = 0.0\nsamples = 4\nvalue = [0, 4]\nclass = yes"] ;
259 -> 260 ;
261 [label="gini = 0.375\nsamples = 4\nvalue = [1, 3]\nclass = yes"] ;
259 -> 261 ;
262 [label="BALANCE_TENURE <= 231.11\ngini = 0.026\nsamples = 1305\nvalue = [1288, 17]\nclass = no"] ;
256 -> 262 ;
263 [label="COMPLETED_TENURE <= 10.564\ngini = 0.012\nsamples = 1199\nvalue = [1192, 7]\nclass = no"] ;
262 -> 263 ;
264 [label="AGREEMENTID <= 11235238.0\ngini = 0.103\nsamples = 55\nvalue = [52, 3]\nclass = no"] ;
263 -> 264 ;
265 [label="MOB <= 17.0\ngini = 0.355\nsamples = 13\nvalue = [10, 3]\nclass = no"] ;
264 -> 265 ;
266 [label="gini = 0.375\nsamples = 4\nvalue = [1, 3]\nclass = yes"] ;
265 -> 266 ;
267 [label="gini = 0.0\nsamples = 9\nvalue = [9, 0]\nclass = no"] ;
265 -> 267 ;
268 [label="gini = 0.0\nsamples = 42\nvalue = [42, 0]\nclass = no"] ;
264 -> 268 ;
269 [label="NET_LTV <= 70.792\ngini = 0.007\nsamples = 1144\nvalue = [1140, 4]\nclass = no"] ;
263 -> 269 ;
270 [label="EXCESS_AVAILABLE <= 899.841\ngini = 0.002\nsamples = 973\nvalue = [972, 1]\nclass = no"] ;
269 -> 270 ;
271 [label="gini = 0.0\nsamples = 927\nvalue = [927, 0]\nclass = no"] ;
270 -> 271 ;
272 [label="gini = 0.043\nsamples = 46\nvalue = [45, 1]\nclass = no"] ;
270 -> 272 ;
273 [label="NET_LTV <= 71.123\ngini = 0.034\nsamples = 171\nvalue = [168, 3]\nclass = no"] ;
269 -> 273 ;
274 [label="gini = 0.408\nsamples = 7\nvalue = [5, 2]\nclass = no"] ;
273 -> 274 ;
275 [label="gini = 0.012\nsamples = 164\nvalue = [163, 1]\nclass = no"] ;
273 -> 275 ;
276 [label="AGREEMENTID <= 11235102.5\ngini = 0.171\nsamples = 106\nvalue = [96, 10]\nclass = no"] ;
262 -> 276 ;
277 [label="DIFF_CURRENT_INTEREST_RATE_MAX_MIN <= 1.181\ngini = 0.498\nsamples = 15\nvalue = [8, 7]\nclass = no"] ;
276 -> 277 ;
278 [label="gini = 0.0\nsamples = 7\nvalue = [0, 7]\nclass = yes"] ;
277 -> 278 ;
279 [label="gini = 0.0\nsamples = 8\nvalue = [8, 0]\nclass = no"] ;
277 -> 279 ;
280 [label="NET_LTV <= 42.261\ngini = 0.064\nsamples = 91\nvalue = [88, 3]\nclass = no"] ;
276 -> 280 ;
281 [label="NET_LTV <= 32.37\ngini = 0.245\nsamples = 14\nvalue = [12, 2]\nclass = no"] ;
280 -> 281 ;
282 [label="gini = 0.0\nsamples = 10\nvalue = [10, 0]\nclass = no"] ;
281 -> 282 ;
283 [label="gini = 0.5\nsamples = 4\nvalue = [2, 2]\nclass = no"] ;
281 -> 283 ;
284 [label="FOIR <= 1.005\ngini = 0.026\nsamples = 77\nvalue = [76, 1]\nclass = no"] ;
280 -> 284 ;
285 [label="gini = 0.0\nsamples = 73\nvalue = [73, 0]\nclass = no"] ;
284 -> 285 ;
286 [label="gini = 0.375\nsamples = 4\nvalue = [3, 1]\nclass = no"] ;
284 -> 286 ;
287 [label="PRODUCT <= 0.5\ngini = 0.183\nsamples = 669\nvalue = [601, 68]\nclass = no"] ;
255 -> 287 ;
288 [label="EMI_AMOUNT <= 41784.689\ngini = 0.449\nsamples = 91\nvalue = [60, 31]\nclass = no"] ;
287 -> 288 ;
289 [label="gini = 0.0\nsamples = 36\nvalue = [36, 0]\nclass = no"] ;
288 -> 289 ;
290 [label="CURRENT_INTEREST_RATE <= 12.42\ngini = 0.492\nsamples = 55\nvalue = [24, 31]\nclass = yes"] ;
288 -> 290 ;
291 [label="PRE_EMI_RECEIVED_AMT <= 19057.475\ngini = 0.271\nsamples = 31\nvalue = [5, 26]\nclass = yes"] ;
290 -> 291 ;
292 [label="CURRENT_INTEREST_RATE_MAX <= 11.958\ngini = 0.494\nsamples = 9\nvalue = [5, 4]\nclass = no"] ;
291 -> 292 ;
293 [label="gini = 0.0\nsamples = 4\nvalue = [0, 4]\nclass = yes"] ;
292 -> 293 ;
294 [label="gini = 0.0\nsamples = 5\nvalue = [5, 0]\nclass = no"] ;
292 -> 294 ;
295 [label="gini = 0.0\nsamples = 22\nvalue = [0, 22]\nclass = yes"] ;
291 -> 295 ;
296 [label="CITY <= 201.511\ngini = 0.33\nsamples = 24\nvalue = [19, 5]\nclass = no"] ;
290 -> 296 ;
297 [label="gini = 0.0\nsamples = 19\nvalue = [19, 0]\nclass = no"] ;
296 -> 297 ;
298 [label="gini = 0.0\nsamples = 5\nvalue = [0, 5]\nclass = yes"] ;
296 -> 298 ;
299 [label="MOB <= 14.94\ngini = 0.12\nsamples = 578\nvalue = [541, 37]\nclass = no"] ;
287 -> 299 ;
300 [label="AGREEMENTID <= 11236240.0\ngini = 0.308\nsamples = 121\nvalue = [98, 23]\nclass = no"] ;
299 -> 300 ;
301 [label="BALANCE_TENURE <= 107.699\ngini = 0.147\nsamples = 25\nvalue = [2, 23]\nclass = yes"] ;
300 -> 301 ;
302 [label="gini = 0.5\nsamples = 4\nvalue = [2, 2]\nclass = no"] ;
301 -> 302 ;
303 [label="gini = 0.0\nsamples = 21\nvalue = [0, 21]\nclass = yes"] ;
301 -> 303 ;
304 [label="gini = 0.0\nsamples = 96\nvalue = [96, 0]\nclass = no"] ;
300 -> 304 ;
305 [label="PAID_INTEREST <= 109134.168\ngini = 0.059\nsamples = 457\nvalue = [443, 14]\nclass = no"] ;
299 -> 305 ;
306 [label="EMI_AMOUNT <= 14845.11\ngini = 0.358\nsamples = 30\nvalue = [23, 7]\nclass = no"] ;
305 -> 306 ;
307 [label="gini = 0.0\nsamples = 23\nvalue = [23, 0]\nclass = no"] ;
306 -> 307 ;
308 [label="gini = 0.0\nsamples = 7\nvalue = [0, 7]\nclass = yes"] ;
306 -> 308 ;
309 [label="NET_LTV <= 34.905\ngini = 0.032\nsamples = 427\nvalue = [420, 7]\nclass = no"] ;
305 -> 309 ;
310 [label="NET_LTV <= 33.685\ngini = 0.168\nsamples = 65\nvalue = [59, 6]\nclass = no"] ;
309 -> 310 ;
311 [label="gini = 0.095\nsamples = 60\nvalue = [57, 3]\nclass = no"] ;
310 -> 311 ;
312 [label="gini = 0.48\nsamples = 5\nvalue = [2, 3]\nclass = yes"] ;
310 -> 312 ;
313 [label="NET_LTV <= 82.95\ngini = 0.006\nsamples = 362\nvalue = [361, 1]\nclass = no"] ;
309 -> 313 ;
314 [label="gini = 0.0\nsamples = 321\nvalue = [321, 0]\nclass = no"] ;
313 -> 314 ;
315 [label="gini = 0.048\nsamples = 41\nvalue = [40, 1]\nclass = no"] ;
313 -> 315 ;
316 [label="PRODUCT <= 0.978\ngini = 0.061\nsamples = 7518\nvalue = [7280, 238]\nclass = no"] ;
172 -> 316 ;
317 [label="DIFF_CURRENT_INTEREST_RATE_MAX_MIN <= 0.932\ngini = 0.191\nsamples = 1393\nvalue = [1244, 149]\nclass = no"] ;
316 -> 317 ;
318 [label="MOB <= 3.15\ngini = 0.447\nsamples = 367\nvalue = [243, 124]\nclass = no"] ;
317 -> 318 ;
319 [label="DIFF_ORIGINAL_CURRENT_TENOR <= -0.028\ngini = 0.055\nsamples = 246\nvalue = [239, 7]\nclass = no"] ;
318 -> 319 ;
320 [label="gini = 0.444\nsamples = 6\nvalue = [2, 4]\nclass = yes"] ;
319 -> 320 ;
321 [label="AGREEMENTID <= 11239668.5\ngini = 0.025\nsamples = 240\nvalue = [237, 3]\nclass = no"] ;
319 -> 321 ;
322 [label="NET_LTV <= 50.915\ngini = 0.397\nsamples = 11\nvalue = [8, 3]\nclass = no"] ;
321 -> 322 ;
323 [label="gini = 0.375\nsamples = 4\nvalue = [1, 3]\nclass = yes"] ;
322 -> 323 ;
324 [label="gini = 0.0\nsamples = 7\nvalue = [7, 0]\nclass = no"] ;
322 -> 324 ;
325 [label="gini = 0.0\nsamples = 229\nvalue = [229, 0]\nclass = no"] ;
321 -> 325 ;
326 [label="EXCESS_AVAILABLE <= 7758.872\ngini = 0.064\nsamples = 121\nvalue = [4, 117]\nclass = yes"] ;
318 -> 326 ;
327 [label="COMPLETED_TENURE <= 8.988\ngini = 0.017\nsamples = 114\nvalue = [1, 113]\nclass = yes"] ;
326 -> 327 ;
328 [label="gini = 0.0\nsamples = 108\nvalue = [0, 108]\nclass = yes"] ;
327 -> 328 ;
329 [label="gini = 0.278\nsamples = 6\nvalue = [1, 5]\nclass = yes"] ;
327 -> 329 ;
330 [label="gini = 0.49\nsamples = 7\nvalue = [3, 4]\nclass = yes"] ;
326 -> 330 ;
331 [label="LOAN_AMT <= 10713971.5\ngini = 0.048\nsamples = 1026\nvalue = [1001, 25]\nclass = no"] ;
317 -> 331 ;
332 [label="DIFF_ORIGINAL_CURRENT_TENOR <= 19.0\ngini = 0.005\nsamples = 845\nvalue = [843, 2]\nclass = no"] ;
331 -> 332 ;
333 [label="AGREEMENTID <= 11238243.5\ngini = 0.002\nsamples = 834\nvalue = [833, 1]\nclass = no"] ;
332 -> 333 ;
334 [label="PRE_EMI_DUEAMT <= 8913.716\ngini = 0.142\nsamples = 13\nvalue = [12, 1]\nclass = no"] ;
333 -> 334 ;
335 [label="gini = 0.375\nsamples = 4\nvalue = [3, 1]\nclass = no"] ;
334 -> 335 ;
336 [label="gini = 0.0\nsamples = 9\nvalue = [9, 0]\nclass = no"] ;
334 -> 336 ;
337 [label="gini = 0.0\nsamples = 821\nvalue = [821, 0]\nclass = no"] ;
333 -> 337 ;
338 [label="MOB <= 11.0\ngini = 0.165\nsamples = 11\nvalue = [10, 1]\nclass = no"] ;
332 -> 338 ;
339 [label="gini = 0.0\nsamples = 7\nvalue = [7, 0]\nclass = no"] ;
338 -> 339 ;
340 [label="gini = 0.375\nsamples = 4\nvalue = [3, 1]\nclass = no"] ;
338 -> 340 ;
341 [label="CITY <= 148.413\ngini = 0.222\nsamples = 181\nvalue = [158, 23]\nclass = no"] ;
331 -> 341 ;
342 [label="FOIR <= 0.58\ngini = 0.056\nsamples = 139\nvalue = [135, 4]\nclass = no"] ;
341 -> 342 ;
343 [label="PRE_EMI_RECEIVED_AMT <= 66040.74\ngini = 0.159\nsamples = 46\nvalue = [42, 4]\nclass = no"] ;
342 -> 343 ;
344 [label="gini = 0.0\nsamples = 30\nvalue = [30, 0]\nclass = no"] ;
343 -> 344 ;
345 [label="AGREEMENTID <= 11243494.5\ngini = 0.375\nsamples = 16\nvalue = [12, 4]\nclass = no"] ;
343 -> 345 ;
346 [label="gini = 0.375\nsamples = 4\nvalue = [1, 3]\nclass = yes"] ;
345 -> 346 ;
347 [label="PAID_INTEREST <= 774996.656\ngini = 0.153\nsamples = 12\nvalue = [11, 1]\nclass = no"] ;
345 -> 347 ;
348 [label="gini = 0.375\nsamples = 4\nvalue = [3, 1]\nclass = no"] ;
347 -> 348 ;
349 [label="gini = 0.0\nsamples = 8\nvalue = [8, 0]\nclass = no"] ;
347 -> 349 ;
350 [label="gini = 0.0\nsamples = 93\nvalue = [93, 0]\nclass = no"] ;
342 -> 350 ;
351 [label="ORIGNAL_TENOR <= 182.098\ngini = 0.495\nsamples = 42\nvalue = [23, 19]\nclass = no"] ;
341 -> 351 ;
352 [label="AGREEMENTID <= 11240782.5\ngini = 0.111\nsamples = 17\nvalue = [16, 1]\nclass = no"] ;
351 -> 352 ;
353 [label="gini = 0.375\nsamples = 4\nvalue = [3, 1]\nclass = no"] ;
352 -> 353 ;
354 [label="gini = 0.0\nsamples = 13\nvalue = [13, 0]\nclass = no"] ;
352 -> 354 ;
355 [label="DIFF_ORIGINAL_CURRENT_TENOR <= -34.845\ngini = 0.403\nsamples = 25\nvalue = [7, 18]\nclass = yes"] ;
351 -> 355 ;
356 [label="PRE_EMI_RECEIVED_AMT <= 30491.27\ngini = 0.219\nsamples = 8\nvalue = [7, 1]\nclass = no"] ;
355 -> 356 ;
357 [label="gini = 0.0\nsamples = 4\nvalue = [4, 0]\nclass = no"] ;
356 -> 357 ;
358 [label="gini = 0.375\nsamples = 4\nvalue = [3, 1]\nclass = no"] ;
356 -> 358 ;
359 [label="gini = 0.0\nsamples = 17\nvalue = [0, 17]\nclass = yes"] ;
355 -> 359 ;
360 [label="NUM_EMI_CHANGES <= 2.17\ngini = 0.029\nsamples = 6125\nvalue = [6036, 89]\nclass = no"] ;
316 -> 360 ;
361 [label="NET_RECEIVABLE <= -5.366\ngini = 0.009\nsamples = 4610\nvalue = [4588, 22]\nclass = no"] ;
360 -> 361 ;
362 [label="NET_RECEIVABLE <= -43.781\ngini = 0.035\nsamples = 1010\nvalue = [992, 18]\nclass = no"] ;
361 -> 362 ;
363 [label="EMI_AMOUNT <= 88.5\ngini = 0.006\nsamples = 952\nvalue = [949, 3]\nclass = no"] ;
362 -> 363 ;
364 [label="gini = 0.278\nsamples = 6\nvalue = [5, 1]\nclass = no"] ;
363 -> 364 ;
365 [label="FOIR <= 0.575\ngini = 0.004\nsamples = 946\nvalue = [944, 2]\nclass = no"] ;
363 -> 365 ;
366 [label="gini = 0.0\nsamples = 638\nvalue = [638, 0]\nclass = no"] ;
365 -> 366 ;
367 [label="FOIR <= 0.595\ngini = 0.013\nsamples = 308\nvalue = [306, 2]\nclass = no"] ;
365 -> 367 ;
368 [label="PRE_EMI_DUEAMT <= 11929.494\ngini = 0.074\nsamples = 52\nvalue = [50, 2]\nclass = no"] ;
367 -> 368 ;
369 [label="gini = 0.0\nsamples = 35\nvalue = [35, 0]\nclass = no"] ;
368 -> 369 ;
370 [label="gini = 0.208\nsamples = 17\nvalue = [15, 2]\nclass = no"] ;
368 -> 370 ;
371 [label="gini = 0.0\nsamples = 256\nvalue = [256, 0]\nclass = no"] ;
367 -> 371 ;
372 [label="BALANCE_EXCESS <= 45.48\ngini = 0.383\nsamples = 58\nvalue = [43, 15]\nclass = no"] ;
362 -> 372 ;
373 [label="ORIGNAL_TENOR <= 156.844\ngini = 0.122\nsamples = 46\nvalue = [43, 3]\nclass = no"] ;
372 -> 373 ;
374 [label="COMPLETED_TENURE <= 3.856\ngini = 0.42\nsamples = 10\nvalue = [7, 3]\nclass = no"] ;
373 -> 374 ;
375 [label="gini = 0.375\nsamples = 4\nvalue = [1, 3]\nclass = yes"] ;
374 -> 375 ;
376 [label="gini = 0.0\nsamples = 6\nvalue = [6, 0]\nclass = no"] ;
374 -> 376 ;
377 [label="gini = 0.0\nsamples = 36\nvalue = [36, 0]\nclass = no"] ;
373 -> 377 ;
378 [label="gini = 0.0\nsamples = 12\nvalue = [0, 12]\nclass = yes"] ;
372 -> 378 ;
379 [label="AGREEMENTID <= 11238786.0\ngini = 0.002\nsamples = 3600\nvalue = [3596, 4]\nclass = no"] ;
361 -> 379 ;
380 [label="MOB <= 12.566\ngini = 0.075\nsamples = 103\nvalue = [99, 4]\nclass = no"] ;
379 -> 380 ;
381 [label="ORIGNAL_TENOR <= 192.0\ngini = 0.346\nsamples = 18\nvalue = [14, 4]\nclass = no"] ;
380 -> 381 ;
382 [label="LOAN_AMT <= 1670726.812\ngini = 0.133\nsamples = 14\nvalue = [13, 1]\nclass = no"] ;
381 -> 382 ;
383 [label="gini = 0.375\nsamples = 4\nvalue = [3, 1]\nclass = no"] ;
382 -> 383 ;
384 [label="gini = 0.0\nsamples = 10\nvalue = [10, 0]\nclass = no"] ;
382 -> 384 ;
385 [label="gini = 0.375\nsamples = 4\nvalue = [1, 3]\nclass = yes"] ;
381 -> 385 ;
386 [label="gini = 0.0\nsamples = 85\nvalue = [85, 0]\nclass = no"] ;
380 -> 386 ;
387 [label="gini = 0.0\nsamples = 3497\nvalue = [3497, 0]\nclass = no"] ;
379 -> 387 ;
388 [label="NUM_EMI_CHANGES <= 2.994\ngini = 0.085\nsamples = 1515\nvalue = [1448, 67]\nclass = no"] ;
360 -> 388 ;
389 [label="gini = 0.0\nsamples = 18\nvalue = [0, 18]\nclass = yes"] ;
388 -> 389 ;
390 [label="AGREEMENTID <= 11239938.5\ngini = 0.063\nsamples = 1497\nvalue = [1448, 49]\nclass = no"] ;
388 -> 390 ;
391 [label="MOB <= 11.897\ngini = 0.158\nsamples = 313\nvalue = [286, 27]\nclass = no"] ;
390 -> 391 ;
392 [label="NUM_LOW_FREQ_TRANSACTIONS <= 3.673\ngini = 0.367\nsamples = 33\nvalue = [8, 25]\nclass = yes"] ;
391 -> 392 ;
393 [label="PRE_EMI_DUEAMT <= 4320.704\ngini = 0.191\nsamples = 28\nvalue = [3, 25]\nclass = yes"] ;
392 -> 393 ;
394 [label="gini = 0.375\nsamples = 4\nvalue = [3, 1]\nclass = no"] ;
393 -> 394 ;
395 [label="gini = 0.0\nsamples = 24\nvalue = [0, 24]\nclass = yes"] ;
393 -> 395 ;
396 [label="gini = 0.0\nsamples = 5\nvalue = [5, 0]\nclass = no"] ;
392 -> 396 ;
397 [label="NET_LTV <= 9.75\ngini = 0.014\nsamples = 280\nvalue = [278, 2]\nclass = no"] ;
391 -> 397 ;
398 [label="gini = 0.375\nsamples = 4\nvalue = [3, 1]\nclass = no"] ;
397 -> 398 ;
399 [label="EMI_RECEIVED_AMT <= 64591.377\ngini = 0.007\nsamples = 276\nvalue = [275, 1]\nclass = no"] ;
397 -> 399 ;
400 [label="BALANCE_EXCESS <= 54.279\ngini = 0.18\nsamples = 10\nvalue = [9, 1]\nclass = no"] ;
399 -> 400 ;
401 [label="gini = 0.375\nsamples = 4\nvalue = [3, 1]\nclass = no"] ;
400 -> 401 ;
402 [label="gini = 0.0\nsamples = 6\nvalue = [6, 0]\nclass = no"] ;
400 -> 402 ;
403 [label="gini = 0.0\nsamples = 266\nvalue = [266, 0]\nclass = no"] ;
399 -> 403 ;
404 [label="EMI_AMOUNT <= 9216.469\ngini = 0.036\nsamples = 1184\nvalue = [1162, 22]\nclass = no"] ;
390 -> 404 ;
405 [label="EMI_AMOUNT <= 7765.427\ngini = 0.093\nsamples = 368\nvalue = [350, 18]\nclass = no"] ;
404 -> 405 ;
406 [label="EMI_RECEIVED_AMT <= 293531.0\ngini = 0.035\nsamples = 280\nvalue = [275, 5]\nclass = no"] ;
405 -> 406 ;
407 [label="DIFF_ORIGINAL_CURRENT_TENOR <= 2.925\ngini = 0.015\nsamples = 272\nvalue = [270, 2]\nclass = no"] ;
406 -> 407 ;
408 [label="gini = 0.007\nsamples = 267\nvalue = [266, 1]\nclass = no"] ;
407 -> 408 ;
409 [label="gini = 0.32\nsamples = 5\nvalue = [4, 1]\nclass = no"] ;
407 -> 409 ;
410 [label="PRE_EMI_DUEAMT <= 18039.453\ngini = 0.469\nsamples = 8\nvalue = [5, 3]\nclass = no"] ;
406 -> 410 ;
411 [label="gini = 0.375\nsamples = 4\nvalue = [1, 3]\nclass = yes"] ;
410 -> 411 ;
412 [label="gini = 0.0\nsamples = 4\nvalue = [4, 0]\nclass = no"] ;
410 -> 412 ;
413 [label="LOAN_AMT <= 1511288.688\ngini = 0.252\nsamples = 88\nvalue = [75, 13]\nclass = no"] ;
405 -> 413 ;
414 [label="FOIR <= 0.555\ngini = 0.033\nsamples = 59\nvalue = [58, 1]\nclass = no"] ;
413 -> 414 ;
415 [label="gini = 0.0\nsamples = 55\nvalue = [55, 0]\nclass = no"] ;
414 -> 415 ;
416 [label="gini = 0.375\nsamples = 4\nvalue = [3, 1]\nclass = no"] ;
414 -> 416 ;
417 [label="CURRENT_INTEREST_RATE <= 14.504\ngini = 0.485\nsamples = 29\nvalue = [17, 12]\nclass = no"] ;
413 -> 417 ;
418 [label="gini = 0.0\nsamples = 15\nvalue = [15, 0]\nclass = no"] ;
417 -> 418 ;
419 [label="gini = 0.245\nsamples = 14\nvalue = [2, 12]\nclass = yes"] ;
417 -> 419 ;
420 [label="PAID_PRINCIPAL <= 1575.002\ngini = 0.01\nsamples = 816\nvalue = [812, 4]\nclass = no"] ;
404 -> 420 ;
421 [label="AGREEMENTID <= 11242421.5\ngini = 0.114\nsamples = 66\nvalue = [62, 4]\nclass = no"] ;
420 -> 421 ;
422 [label="MOB <= 9.71\ngini = 0.426\nsamples = 13\nvalue = [9, 4]\nclass = no"] ;
421 -> 422 ;
423 [label="gini = 0.0\nsamples = 4\nvalue = [0, 4]\nclass = yes"] ;
422 -> 423 ;
424 [label="gini = 0.0\nsamples = 9\nvalue = [9, 0]\nclass = no"] ;
422 -> 424 ;
425 [label="gini = 0.0\nsamples = 53\nvalue = [53, 0]\nclass = no"] ;
421 -> 425 ;
426 [label="gini = 0.0\nsamples = 750\nvalue = [750, 0]\nclass = no"] ;
420 -> 426 ;
}